{"learner":{"attributes":{"best_iteration":"7","best_score":"0.00681505233282142"},"feature_names":["dur","sbytes","dbytes","Sload","swin","smeansz","Sjit","Stime","ct_srv_src","ct_srv_dst","ct_dst_ltm","ct_src_ ltm","ct_dst_src_ltm","duration","jit_ratio","inter_pkt_ratio","tcp_setup_ratio","byte_pkt_interaction_dst","load_jit_interaction_dst","tcp_seq_diff","label"],"feature_types":["float","float","float","float","float","float","float","float","float","float","float","float","float","float","float","float","float","float","float","float","int"],"gradient_booster":{"model":{"gbtree_model_param":{"num_parallel_tree":"1","num_trees":"112"},"iteration_indptr":[0,11,22,33,44,55,66,77,88,89,90,91,92,93,94,95,96,97,98,99,100,101,102,103,104,105,106,107,108,109,110,111,112],"tree_info":[0,1,2,3,4,5,6,7,8,9,10,0,1,2,3,4,5,6,7,8,9,10,0,1,2,3,4,5,6,7,8,9,10,0,1,2,3,4,5,6,7,8,9,10,0,1,2,3,4,5,6,7,8,9,10,0,1,2,3,4,5,6,7,8,9,10,0,1,2,3,4,5,6,7,8,9,10,0,1,2,3,4,5,6,7,8,9,10,0,0,0,0,0,0,0,0,0,0,0,0,0,0,0,0,0,0,0,0,0,0,0,0],"trees":[{"base_weights":[-7.478302E-3,2.5E-1,-2.7472302E-2],"categories":[],"categories_nodes":[],"categories_segments":[],"categories_sizes":[],"default_left":[0,0,0],"id":0,"left_children":[1,-1,-1],"loss_changes":[7.264384E3,0E0,0E0],"parents":[2147483647,0,0],"right_children":[2,-1,-1],"split_conditions":[1E0,2.5E-1,-2.7472302E-2],"split_indices":[20,0,0],"split_type":[0,0,0],"sum_hessian":[2.457789E3,2.2026413E2,2.237525E3],"tree_param":{"num_deleted":"0","num_feature":"21","num_nodes":"3","size_leaf_vector":"1"}},{"base_weights":[1.4497937E-2,2.5216887E0,-2.746903E-2,-2.7220393E-2,2.5E-1],"categories":[],"categories_nodes":[],"categories_segments":[],"categories_sizes":[],"default_left":[0,0,0,0,0],"id":1,"left_children":[1,3,-1,-1,-1],"loss_changes":[3.4735732E3,4.041866E3,0E0,0E0,0E0],"parents":[2147483647,0,0,1,1],"right_children":[2,4,-1,-1,-1],"split_conditions":[2E0,1E0,-2.746903E-2,-2.7220393E-2,2.5E-1],"split_indices":[20,20,0,0,0],"split_type":[0,0,0,0,0],"sum_hessian":[2.4508318E3,4.497473E2,2.0010844E3,2.2093721E2,2.288101E2],"tree_param":{"num_deleted":"0","num_feature":"21","num_nodes":"5","size_leaf_vector":"1"}},{"base_weights":[6.2861904E-3,1.4861838E0,-2.7465163E-2,3.563563E0,-2.7316822E-2,2.3976739E-1,1.4224724E0,2.7138233E0,5.23407E-1,-2.4779692E-2,2.5E-1,-2.6472464E-2,2.5E-1],"categories":[],"categories_nodes":[],"categories_segments":[],"categories_sizes":[],"default_left":[0,0,0,0,0,0,0,0,0,0,0,0,0],"id":2,"left_children":[1,3,-1,5,-1,-1,7,9,11,-1,-1,-1,-1],"loss_changes":[2.0169391E3,2.831337E3,0E0,8.666968E2,0E0,0E0,1.4110483E2,4.214487E2,3.6941293E2,0E0,0E0,0E0,0E0],"parents":[2147483647,0,0,1,1,3,3,6,6,7,7,8,8],"right_children":[2,4,-1,6,-1,-1,8,10,12,-1,-1,-1,-1],"split_conditions":[3E0,3.1970371E-3,-2.7465163E-2,7.226061E-1,-2.7316822E-2,2.3976739E-1,-3.5202172E-1,2E0,2E0,-2.4779692E-2,2.5E-1,-2.6472464E-2,2.5E-1],"split_indices":[20,13,0,6,0,0,5,20,20,0,0,0,0],"split_type":[0,0,0,0,0,0,0,0,0,0,0,0,0],"sum_hessian":[2.446599E3,6.678304E2,1.7787687E3,3.3016718E2,3.3766324E2,2.0872237E2,1.21444824E2,4.88195E1,7.262533E1,2.1991518E1,2.682798E1,5.9538506E1,1.308682E1],"tree_param":{"num_deleted":"0","num_feature":"21","num_nodes":"13","size_leaf_vector":"1"}},{"base_weights":[-7.066122E-3,2.0964128E-1,-2.0570368E-1,2.5519962E0,-2.7430171E-2,1.568111E0,4.0819135E0,-2.6959835E-2,2.5E-1,-2.512824E-2,2.5E-1,1.797428E-1,-2.7409097E-2,2.5432425E0,6.936712E-2,-2.73806E-2,2.5E-1,-2.2712229E-2,2.5E-1],"categories":[],"categories_nodes":[],"categories_segments":[],"categories_sizes":[],"default_left":[0,0,0,0,0,0,0,0,0,0,0,0,0,0,0,0,0,0,0],"id":3,"left_children":[1,3,11,5,-1,7,9,-1,-1,-1,-1,13,-1,17,15,-1,-1,-1,-1],"loss_changes":[1.0655916E2,2.0937883E3,1.7091864E2,4.283512E2,0E0,1.4349086E3,6.875558E2,0E0,0E0,0E0,0E0,1.593237E2,0E0,2.17232E2,1.912335E3,0E0,0E0,0E0,0E0],"parents":[2147483647,0,0,1,1,3,3,5,5,6,6,2,2,11,11,14,14,13,13],"right_children":[2,4,12,6,-1,8,10,-1,-1,-1,-1,14,-1,18,16,-1,-1,-1,-1],"split_conditions":[-1.6330427E-2,4E0,4E0,9.58054E-1,-2.7430171E-2,3E0,3E0,-2.6959835E-2,2.5E-1,-2.512824E-2,2.5E-1,-1.5450217E-1,-2.7409097E-2,3E0,3E0,-2.73806E-2,2.5E-1,-2.2712229E-2,2.5E-1],"split_indices":[8,20,20,2,0,20,20,0,0,0,0,9,0,20,20,0,0,0,0],"split_type":[0,0,0,0,0,0,0,0,0,0,0,0,0,0,0,0,0,0,0],"sum_hessian":[2.4587551E3,1.1739454E3,1.2848097E3,2.8688092E2,8.8706445E2,1.7590186E2,1.1097907E2,1.1397885E2,6.1922997E1,2.5340885E1,8.563819E1,6.035646E2,6.812451E2,2.5818829E1,5.777458E2,5.184578E2,5.928798E1,1.2149655E1,1.3669172E1],"tree_param":{"num_deleted":"0","num_feature":"21","num_nodes":"19","size_leaf_vector":"1"}},{"base_weights":[-9.005293E-3,6.347338E-1,-2.745351E-2,2.1039371E0,-4.0587667E-1,-2.7261807E-2,2.5E-1,-2.7403E-2,2.5E-1],"categories":[],"categories_nodes":[],"categories_segments":[],"categories_sizes":[],"default_left":[0,0,0,0,0,0,0,0,0],"id":4,"left_children":[1,3,-1,5,7,-1,-1,-1,-1],"loss_changes":[8.539763E2,1.713655E3,0E0,4.107341E3,5.260234E2,0E0,0E0,0E0,0E0],"parents":[2147483647,0,0,1,1,3,3,4,4],"right_children":[2,4,-1,6,8,-1,-1,-1,-1],"split_conditions":[5E0,-4.845697E-1,-2.745351E-2,4E0,4E0,-2.7261807E-2,2.5E-1,-2.7403E-2,2.5E-1],"split_indices":[20,17,0,20,20,0,0,0,0],"split_type":[0,0,0,0,0,0,0,0,0],"sum_hessian":[2.449537E3,1.1167671E3,1.3327701E3,4.6300998E2,6.537571E2,2.594922E2,2.0351776E2,6.3836914E2,1.5387929E1],"tree_param":{"num_deleted":"0","num_feature":"21","num_nodes":"9","size_leaf_vector":"1"}},{"base_weights":[-6.741474E-3,-3.9474836E-1,3.0525148E-1,-3.0210766E-1,1.5011083E0,3.052806E0,-4.131386E-1,-3.120391E-1,1.7574319E0,2.141898E0,-2.749733E-1,3.5173352E0,-4.2679903E-1,1.5281113E-2,1.898924E-1,1.8780243E-2,2.4748342E-1,-4.3579623E-1,3.618927E-2,-1.3029033E-1,-4.4117635E-1,-2.9715353E-1,6.514054E-1,2.0408463E-2,-4.58329E-1,2.1388685E-2,-2.6235327E-2,7.0468726E-4,5.6793272E-2,6.3682906E-3,-2.4541056E-2,-3.7737522E-1,-5.228285E-1,-4.4851148E-1,-2.2678831E-1,-4.6790458E-4,-2.4758084E-2,-2.7030006E-2,-3.9319116E-1,-1.7823038E-1,-2.5149945E-2,-3.19143E-1,2.2747258E-2,-5.260606E-3,-2.1117978E-2,-2.2591222E-2,-5.672699E-3,-0E0,-1.964401E-2,-2.1284087E-2,-1.560809E-2,-2.8769973E-1,-2.6716108E-2,-0E0,-2.4061501E-2],"categories":[],"categories_nodes":[],"categories_segments":[],"categories_sizes":[],"default_left":[0,0,0,0,0,0,0,0,0,0,0,0,0,0,0,0,0,0,0,0,0,0,0,0,0,0,0,0,0,0,0,0,0,0,0,0,0,0,0,0,0,0,0,0,0,0,0,0,0,0,0,0,0,0,0],"id":5,"left_children":[1,19,3,5,7,15,17,47,9,11,25,13,29,-1,-1,-1,-1,37,-1,21,23,39,27,-1,31,-1,-1,-1,-1,-1,-1,33,51,35,43,-1,-1,-1,49,41,-1,45,-1,-1,-1,-1,-1,-1,-1,-1,-1,53,-1,-1,-1],"loss_changes":[3.0048532E2,1.3324036E1,9.982904E2,3.4231573E2,2.1712683E2,1.4497122E2,2.388971E1,1.8605595E0,3.1956714E2,1.2116449E3,1.271714E1,1.9711914E2,4.885212E0,0E0,0E0,0E0,0E0,3.7383575E0,0E0,2.3152653E1,1.4498749E1,3.430131E0,8.830959E0,0E0,4.6236267E0,0E0,0E0,0E0,0E0,0E0,0E0,4.306671E0,1.0588074E0,5.3736916E0,3.3180056E0,0E0,0E0,0E0,1.4944E0,9.22026E0,0E0,2.0080853E0,0E0,0E0,0E0,0E0,0E0,0E0,0E0,0E0,0E0,2.131174E0,0E0,0E0,0E0],"parents":[2147483647,0,0,2,2,3,3,4,4,8,8,9,9,11,11,5,5,6,6,1,1,19,19,20,20,10,10,22,22,12,12,24,24,31,31,33,33,17,17,21,21,39,39,34,34,41,41,7,7,38,38,32,32,51,51],"right_children":[2,20,4,6,8,16,18,48,10,12,26,14,30,-1,-1,-1,-1,38,-1,22,24,40,28,-1,32,-1,-1,-1,-1,-1,-1,34,52,36,44,-1,-1,-1,50,42,-1,46,-1,-1,-1,-1,-1,-1,-1,-1,-1,54,-1,-1,-1],"split_conditions":[-2.1837826E-1,-8.7620926E-1,-2.9908385E-2,-1.4495306E0,-3.5261887E-1,-1.4537358E0,6.6586864E-1,-8.943822E-1,8.00018E-1,9.6874106E-1,1.0007876E0,-4.2001083E-3,-9.3683356E-1,1.5281113E-2,1.898924E-1,1.8780243E-2,2.4748342E-1,1.519332E-1,3.618927E-2,-9.059731E-1,-1.4495306E0,4.1979474E-1,-1.2306463E0,2.0408463E-2,-3.2213435E-1,2.1388685E-2,-2.6235327E-2,7.0468726E-4,5.6793272E-2,6.3682906E-3,-2.4541056E-2,-3.558289E-1,-1.0818855E0,-3.909803E-3,9.9375844E-1,-4.6790458E-4,-2.4758084E-2,-2.7030006E-2,1.7844796E0,9.289708E-1,-2.5149945E-2,-3.918862E-2,2.2747258E-2,-5.260606E-3,-2.1117978E-2,-2.2591222E-2,-5.672699E-3,-0E0,-1.964401E-2,-2.1284087E-2,-1.560809E-2,9.6874106E-1,-2.6716108E-2,-0E0,-2.4061501E-2],"split_indices":[9,18,1,1,8,1,5,18,3,2,2,14,18,0,0,0,0,5,0,18,1,5,3,0,5,0,0,0,0,0,0,5,3,14,2,0,0,0,12,2,0,11,0,0,0,0,0,0,0,0,0,2,0,0,0],"split_type":[0,0,0,0,0,0,0,0,0,0,0,0,0,0,0,0,0,0,0,0,0,0,0,0,0,0,0,0,0,0,0,0,0,0,0,0,0,0,0,0,0,0,0,0,0,0,0,0,0,0,0,0,0,0,0],"sum_hessian":[2.4708625E3,1.1023224E3,1.3685402E3,9.075414E2,4.609988E2,2.8163097E1,8.793783E2,5.6690968E1,4.0430783E2,3.4028696E2,6.402087E1,2.2162917E2,1.18657814E2,1.8165697E1,2.0346346E2,1.2251578E1,1.5911519E1,8.6336926E2,1.6008999E1,1.6764986E2,9.346725E2,1.3941022E2,2.8239637E1,1.7217892E1,9.174546E2,1.5796347E1,4.822452E1,1.3264569E1,1.4975068E1,1.0912631E1,1.0774518E2,4.1476453E2,5.026901E2,2.7701102E2,1.3775351E2,2.8339504E1,2.4867152E2,2.4140671E2,6.219626E2,9.1770615E1,4.7639606E1,7.642299E1,1.5347619E1,8.822789E1,4.952561E1,4.350989E1,3.29131E1,1.0009356E1,4.668161E1,4.3447446E2,1.8748813E2,2.7641836E1,4.7504825E2,1.041072E1,1.7231117E1],"tree_param":{"num_deleted":"0","num_feature":"21","num_nodes":"55","size_leaf_vector":"1"}},{"base_weights":[-1.7155921E-2,4.0147896E0,-4.2624092E-1,-1.8718323E-2,2.5E-1,-4.827482E-1,-2.892409E-1,2.155159E-1,-3.134062E-1,-2.4398299E-2,-1.9457076E-1,3.443539E-1,-2.7843326E-1,-5.4428256E-3,4.7094323E-2,-1.757088E-2,1.1938429E-2,3.554104E-2,-1.27088865E-2,-2.6227757E-2,-4.40765E-1,-2.5096113E-2,-3.9167356E-1,-3.7103507E-1,-2.5567645E-2,-1.0920398E-2,-1.9729828E-2],"categories":[],"categories_nodes":[],"categories_segments":[],"categories_sizes":[],"default_left":[0,0,0,0,0,0,0,0,0,0,0,0,0,0,0,0,0,0,0,0,0,0,0,0,0,0,0],"id":6,"left_children":[1,3,5,-1,-1,19,7,17,9,-1,11,13,15,-1,-1,-1,-1,-1,-1,-1,21,-1,23,25,-1,-1,-1],"loss_changes":[4.010331E3,1.3108125E3,1.6895782E1,0E0,0E0,2.5458374E0,8.445457E0,8.377238E0,1.2876183E1,0E0,1.762421E1,1.5275641E1,1.2946465E1,0E0,0E0,0E0,0E0,0E0,0E0,0E0,2.2268982E0,0E0,1.0380173E0,1.2378616E0,0E0,0E0,0E0],"parents":[2147483647,0,0,1,1,2,2,6,6,8,8,10,10,11,11,12,12,7,7,5,5,20,20,22,22,23,23],"right_children":[2,4,6,-1,-1,20,8,18,10,-1,12,14,16,-1,-1,-1,-1,-1,-1,-1,22,-1,24,26,-1,-1,-1],"split_conditions":[-1.3205127E0,-1.3682654E0,7.522304E-1,-1.8718323E-2,2.5E-1,3.714348E-3,-9.997782E-1,-9.8323E-1,8.57636E-1,-2.4398299E-2,1.0107999E0,1.0331693E0,1.1487173E0,-5.4428256E-3,4.7094323E-2,-1.757088E-2,1.1938429E-2,3.554104E-2,-1.27088865E-2,-2.6227757E-2,2.447445E-1,-2.5096113E-2,-8.156741E-1,2.997229E-1,-2.5567645E-2,-1.0920398E-2,-1.9729828E-2],"split_indices":[1,1,1,0,0,13,0,9,2,0,1,2,0,0,0,0,0,0,0,0,9,0,1,9,0,0,0],"split_type":[0,0,0,0,0,0,0,0,0,0,0,0,0,0,0,0,0,0,0,0,0,0,0,0,0,0,0],"sum_hessian":[2.4271946E3,2.2275107E2,2.2044436E3,5.2434814E1,1.7031625E2,1.5551464E3,6.492972E2,2.786303E1,6.2143414E2,2.4796956E2,3.7346457E2,4.867036E1,3.247942E2,2.7288372E1,2.1381989E1,2.8620932E2,3.8584877E1,1.4190887E1,1.3672142E1,7.650545E2,7.900918E2,3.4126898E2,4.4882285E2,3.913073E2,5.751551E1,5.796828E1,3.3333905E2],"tree_param":{"num_deleted":"0","num_feature":"21","num_nodes":"27","size_leaf_vector":"1"}},{"base_weights":[-7.136543E-3,-2.1911994E-1,4.2970934E0,-2.738404E-1,2.5E-1,2.5E-1,-3.2370222E-1,-4.77048E-1,5.861534E-1,-4.5555815E-2,3.7528007E0,1.7293724E0,4.9757957E0,5.5750933E-2,-2.395364E-2,-9.957017E-3,2.1218692E-1,2.2264718E-1,4.5704313E-2,9.781704E-2,2.5E-1,-5.0573134E-1,6.5637994E-1,-1.46481935E-2,1.6814652E-1,-2.5901208E-2,3.1805117E-2],"categories":[],"categories_nodes":[],"categories_segments":[],"categories_sizes":[],"default_left":[0,0,0,0,0,0,0,0,0,0,0,0,0,0,0,0,0,0,0,0,0,0,0,0,0,0,0],"id":7,"left_children":[1,3,11,5,-1,-1,7,21,9,13,17,15,19,-1,-1,-1,-1,-1,-1,-1,-1,25,23,-1,-1,-1,-1],"loss_changes":[2.252964E3,7.047559E2,1.929231E2,6.4012354E2,0E0,0E0,3.2316833E2,6.545825E1,6.730052E2,1.4207841E2,1.0531525E2,1.3250067E2,8.61333E1,0E0,0E0,0E0,0E0,0E0,0E0,0E0,0E0,2.8263947E1,1.3243947E2,0E0,0E0,0E0,0E0],"parents":[2147483647,0,0,1,1,3,3,6,6,8,8,2,2,9,9,11,11,10,10,12,12,7,7,22,22,21,21],"right_children":[2,4,12,6,-1,-1,8,22,10,14,18,16,20,-1,-1,-1,-1,-1,-1,-1,-1,26,24,-1,-1,-1,-1],"split_conditions":[7.8825206E-1,4.1678816E-1,-5.748999E-2,-3.7075446E0,2.5E-1,2.5E-1,1.0553763E0,1.5051141E0,8.73847E-1,3.666143E-1,3.666143E-1,3.1970348E-3,3.197015E-3,5.5750933E-2,-2.395364E-2,-9.957017E-3,2.1218692E-1,2.2264718E-1,4.5704313E-2,9.781704E-2,2.5E-1,-4.98035E-4,5.7865393E-1,-1.46481935E-2,1.6814652E-1,-2.5901208E-2,3.1805117E-2],"split_indices":[3,16,11,18,0,0,1,5,10,16,16,13,13,0,0,0,0,0,0,0,0,14,9,0,0,0,0],"split_type":[0,0,0,0,0,0,0,0,0,0,0,0,0,0,0,0,0,0,0,0,0,0,0,0,0,0,0],"sum_hessian":[2.4632468E3,2.348527E3,1.1471986E2,2.3260823E3,2.2444849E1,2.0094376E1,2.3059878E3,1.9744728E3,3.3151505E2,2.7682712E2,5.468792E1,2.4823357E1,8.98965E1,7.443993E1,2.0238719E2,1.4285149E1,1.0538209E1,4.3277256E1,1.14106655E1,1.1183917E1,7.8712585E1,1.9268593E3,4.761358E1,3.5558857E1,1.2054722E1,1.9074614E3,1.9397772E1],"tree_param":{"num_deleted":"0","num_feature":"21","num_nodes":"27","size_leaf_vector":"1"}},{"base_weights":[1.0859098E-2,4.1043505E-1,-3.4676465E-1,7.2400576E-1,-2.3285916E-2,9.4171697E-1,-2.1372157E-1,1.933601E0,-2.6230259E-2,1.1859202E0,3.8026185E0,1.4808731E-1,-4.0919855E-3,2.5E-1,4.000377E-2,-2.6985837E-2,7.453827E-1,1.2867743E0,-1.0157145E-2,-2.2572818E-1,-4.5655358E-1,1.7573129E-1,-2.8899446E-1,8.25671E-1,-2.594547E-2,1.4067231E0,-1.9735022E-2,-2.3090076E-1,-2.5172848E-2,1.9622158E-1,-2.7042946E-1,-2.1467438E-2,4.5027826E-2,9.872834E-2,4.977475E-2,4.1114606E-4,-1.5399928E-2,8.007398E-2,3.2914404E-2,-4.0692356E-1,-2.667946E-2,-2.6301602E-2,-2.7606544E-1,7.846448E-3,-3.0581272E-1,-0E0,-1.6794711E-2],"categories":[],"categories_nodes":[],"categories_segments":[],"categories_sizes":[],"default_left":[0,0,0,0,0,0,0,0,0,0,0,0,0,0,0,0,0,0,0,0,0,0,0,0,0,0,0,0,0,0,0,0,0,0,0,0,0,0,0,0,0,0,0,0,0,0,0],"id":8,"left_children":[1,3,19,5,-1,7,15,9,-1,11,13,-1,-1,-1,-1,-1,17,37,-1,21,39,23,27,25,-1,33,-1,29,-1,31,35,-1,-1,-1,-1,-1,-1,-1,-1,41,-1,-1,43,-1,45,-1,-1],"loss_changes":[3.4972775E2,3.1844766E2,1.699559E1,1.7495825E2,0E0,1.00887067E3,5.193315E1,5.736914E2,0E0,6.720498E2,5.2793665E2,0E0,0E0,0E0,0E0,0E0,2.2977667E1,4.1116257E0,0E0,1.6175772E1,2.409851E0,3.9806316E1,6.6941643E0,3.3760864E1,0E0,5.6011047E0,0E0,7.657295E0,0E0,1.7817421E1,4.4104786E0,0E0,0E0,0E0,0E0,0E0,0E0,0E0,0E0,6.376602E0,0E0,0E0,3.0794735E0,0E0,1.6848412E0,0E0,0E0],"parents":[2147483647,0,0,1,1,3,3,5,5,7,7,9,9,10,10,6,6,16,16,2,2,19,19,21,21,23,23,22,22,27,27,29,29,25,25,30,30,17,17,20,20,39,39,42,42,44,44],"right_children":[2,4,20,6,-1,8,16,10,-1,12,14,-1,-1,-1,-1,-1,18,38,-1,22,40,24,28,26,-1,34,-1,30,-1,32,36,-1,-1,-1,-1,-1,-1,-1,-1,42,-1,-1,44,-1,46,-1,-1],"split_conditions":[-8.359853E-1,4.6239403E-1,2.2918823E-1,1.3931984E-2,-2.3285916E-2,8.57636E-1,-2.714147E-1,8.803227E-2,-2.6230259E-2,-1.1652424E0,1.082942E-1,1.4808731E-1,-4.0919855E-3,2.5E-1,4.000377E-2,-2.6985837E-2,-6.5462524E-1,-1.1096294E-3,-1.0157145E-2,-9.8323E-1,-1.1912487E-1,8.57636E-1,8.57636E-1,4.6239403E-1,-2.594547E-2,-9.997782E-1,-1.9735022E-2,-1.1652424E0,-2.5172848E-2,-1.3558238E0,-1.110495E0,-2.1467438E-2,4.5027826E-2,9.872834E-2,4.977475E-2,4.1114606E-4,-1.5399928E-2,8.007398E-2,3.2914404E-2,5.048404E-2,-2.667946E-2,-2.6301602E-2,-1.1143218E0,7.846448E-3,3.9027008E-1,-0E0,-1.6794711E-2],"split_indices":[12,5,10,15,0,2,5,5,0,5,5,0,0,0,0,0,18,14,0,9,7,2,2,5,0,0,0,5,0,5,0,0,0,0,0,0,0,0,0,5,0,0,0,0,5,0,0],"split_type":[0,0,0,0,0,0,0,0,0,0,0,0,0,0,0,0,0,0,0,0,0,0,0,0,0,0,0,0,0,0,0,0,0,0,0,0,0,0,0,0,0,0,0,0,0,0,0],"sum_hessian":[2.437087E3,1.1520315E3,1.2850554E3,8.4917E2,3.0286154E2,6.8985645E2,1.5931355E2,4.1167334E2,2.781831E2,2.952838E2,1.1638954E2,1.22813614E2,1.724702E2,7.632878E1,4.0060764E1,1.1978359E2,3.952996E1,2.5521273E1,1.4008688E1,6.158476E2,6.692078E2,8.192447E1,5.339231E2,4.2841057E1,3.9083412E1,2.9383938E1,1.3457117E1,4.2436304E2,1.09560074E2,3.3963627E1,3.903994E2,1.7551443E1,1.6412184E1,1.0247289E1,1.9136648E1,4.3926292E1,3.464731E2,1.5332381E1,1.0188891E1,4.1637192E2,2.5283594E2,2.1350655E2,2.0286537E2,1.1092458E1,1.917729E2,1.844117E1,1.7333174E2],"tree_param":{"num_deleted":"0","num_feature":"21","num_nodes":"47","size_leaf_vector":"1"}},{"base_weights":[-3.2611447E-3,4.7514755E-1,-4.8942244E-1,1.6083697E0,-3.1425613E-1,2.3261207E-1,2.232603E0,1.0421026E0,3.860547E0,2.257218E-1,2.703227E0,4.2780075E0,-9.458611E-3,8.2328844E-1,-2.0877492E-2,-2.5665194E-2,1.7022483E0,3.394997E-2,-4.9822742E-1,1.0223112E-1,2.6496535E-2,2.2308159E-1,1.5219916E-1,7.0282136E-4,4.1702762E-2,1.7764485E-1,-3.6563498E-1,7.2230834E-1,-2.673091E-2,9.659725E-2,1.5463477E-1,2.6206166E-2,6.778487E-2,1.110644E-2,-2.5434468E-2,-3.8547388E-1,-5.275138E-1,-2.6250688E-2,-2.4036802E-1,-0E0,-2.296065E-2,-1.8143127E-2,2.5686544E-1,-5.4673296E-3,2.7216045E-2,-2.0552984E-1,-5.145637E-1,9.0367235E-3,-2.4131801E-2,-1.530449E-2,-2.6857004E-2,-2.7412405E-2,-4.3668252E-1,-2.4776018E-1,-2.6937405E-2,-2.2017814E-2,-0E0,-2.0905599E-2,3.0639771E-2],"categories":[],"categories_nodes":[],"categories_segments":[],"categories_sizes":[],"default_left":[0,0,0,0,0,0,0,0,0,0,0,0,0,0,0,0,0,0,0,0,0,0,0,0,0,0,0,0,0,0,0,0,0,0,0,0,0,0,0,0,0,0,0,0,0,0,0,0,0,0,0,0,0,0,0,0,0,0,0],"id":9,"left_children":[1,3,35,5,17,13,7,9,11,23,29,21,-1,15,-1,-1,19,25,45,-1,-1,-1,-1,-1,-1,27,33,31,-1,-1,-1,-1,-1,-1,-1,37,51,-1,39,41,-1,-1,43,-1,-1,47,49,-1,-1,-1,-1,-1,53,55,-1,-1,57,-1,-1],"loss_changes":[5.713391E2,1.1075928E3,4.5989685E0,4.3454773E2,4.7340355E1,6.350236E1,6.723312E2,2.749489E2,2.5269434E2,1.7953947E1,1.4850891E1,1.845337E1,0E0,1.03191864E2,0E0,0E0,1.915799E1,1.5114486E1,1.9779587E0,0E0,0E0,0E0,0E0,0E0,0E0,7.451541E1,6.378763E0,1.3164623E1,0E0,0E0,0E0,0E0,0E0,0E0,0E0,6.6710777E0,1.4135437E0,0E0,9.414859E0,8.478161E0,0E0,0E0,6.090491E0,0E0,0E0,4.1658297E0,1.8340759E0,0E0,0E0,0E0,0E0,0E0,3.198616E0,3.6652002E0,0E0,0E0,9.214407E0,0E0,0E0],"parents":[2147483647,0,0,1,1,3,3,6,6,7,7,8,8,5,5,13,13,4,4,16,16,11,11,9,9,17,17,25,25,10,10,27,27,26,26,2,2,35,35,38,38,39,39,42,42,18,18,45,45,46,46,36,36,52,52,53,53,56,56],"right_children":[2,4,36,6,18,14,8,10,12,24,30,22,-1,16,-1,-1,20,26,46,-1,-1,-1,-1,-1,-1,28,34,32,-1,-1,-1,-1,-1,-1,-1,38,52,-1,40,42,-1,-1,44,-1,-1,48,50,-1,-1,-1,-1,-1,54,56,-1,-1,58,-1,-1],"split_conditions":[2.5864005E-1,4.1489786E-1,5.7865393E-1,-9.782771E-1,7.704691E-1,-1.0072657E0,-2.127542E-3,1.2680745E-1,-1.0157224E-3,-9.8323E-1,-6.7926E-1,1.6619679E0,-9.458611E-3,-8.2565147E-1,-2.0877492E-2,-2.5665194E-2,-9.080791E-1,-5.899745E-1,3.5026532E-1,1.0223112E-1,2.6496535E-2,2.2308159E-1,1.5219916E-1,7.0282136E-4,4.1702762E-2,-1.013759E0,3.5026532E-1,-9.8323E-1,-2.673091E-2,9.659725E-2,1.5463477E-1,2.6206166E-2,6.778487E-2,1.110644E-2,-2.5434468E-2,3.2177018E-3,-7.3944116E-1,-2.6250688E-2,9.3383425E-1,1.0421417E0,-2.296065E-2,-1.8143127E-2,-6.537978E-1,-5.4673296E-3,2.7216045E-2,1.162608E0,8.862199E-1,9.0367235E-3,-2.4131801E-2,-1.530449E-2,-2.6857004E-2,-2.7412405E-2,4.0279138E-1,-6.1586696E-1,-2.6937405E-2,-2.2017814E-2,1.3294924E0,-2.0905599E-2,3.0639771E-2],"split_indices":[12,1,9,1,1,1,14,1,14,9,18,7,0,17,0,0,9,18,6,0,0,0,0,0,0,17,6,9,0,0,0,0,0,0,0,13,1,0,12,17,0,0,7,0,0,1,1,0,0,0,0,0,1,18,0,0,12,0,0],"split_type":[0,0,0,0,0,0,0,0,0,0,0,0,0,0,0,0,0,0,0,0,0,0,0,0,0,0,0,0,0,0,0,0,0,0,0,0,0,0,0,0,0,0,0,0,0,0,0,0,0,0,0,0,0,0,0,0,0,0,0],"sum_hessian":[2.4482246E3,1.2331307E3,1.2150939E3,5.0638184E2,7.267489E2,1.5879367E2,3.4758817E2,2.0180992E2,1.4577823E2,1.3624225E2,6.556768E1,1.3229337E2,1.3484856E1,8.3736206E1,7.5057465E1,3.2991005E1,5.0745205E1,2.4995604E2,4.7679288E2,3.8286114E1,1.245909E1,1.1277205E2,1.9521324E1,1.0265701E2,3.358524E1,1.8564323E2,6.431281E1,1.05828606E2,7.981463E1,2.4289183E1,4.1278496E1,8.268257E1,2.314603E1,1.1407721E1,5.290509E1,3.3387402E2,8.812199E2,1.6632304E2,1.6755098E2,7.923967E1,8.831131E1,3.1972511E1,4.726716E1,1.9780224E1,2.7486935E1,2.8367516E1,4.4842535E2,1.0760067E1,1.7607449E1,4.841698E1,4.000084E2,7.0699603E2,1.7422388E2,6.482097E1,1.0940291E2,3.7284977E1,2.7535995E1,1.6021791E1,1.1514203E1],"tree_param":{"num_deleted":"0","num_feature":"21","num_nodes":"59","size_leaf_vector":"1"}},{"base_weights":[-5.542323E-3,-2.7472118E-2,2.5E-1],"categories":[],"categories_nodes":[],"categories_segments":[],"categories_sizes":[],"default_left":[0,0,0],"id":10,"left_children":[1,-1,-1],"loss_changes":[7.2417373E3,0E0,0E0],"parents":[2147483647,0,0],"right_children":[2,-1,-1],"split_conditions":[1E1,-2.7472118E-2,2.5E-1],"split_indices":[20,0,0],"split_type":[0,0,0],"sum_hessian":[2.4423018E3,2.2226445E3,2.1965712E2],"tree_param":{"num_deleted":"0","num_feature":"21","num_nodes":"3","size_leaf_vector":"1"}},{"base_weights":[-8.293037E-3,2.1497722E-1,-2.7395308E-2],"categories":[],"categories_nodes":[],"categories_segments":[],"categories_sizes":[],"default_left":[0,0,0],"id":11,"left_children":[1,-1,-1],"loss_changes":[5.678443E3,0E0,0E0],"parents":[2147483647,0,0],"right_children":[2,-1,-1],"split_conditions":[1E0,2.1497722E-1,-2.7395308E-2],"split_indices":[20,0,0],"split_type":[0,0,0],"sum_hessian":[2.439147E3,2.7073773E2,2.1684094E3],"tree_param":{"num_deleted":"0","num_feature":"21","num_nodes":"3","size_leaf_vector":"1"}},{"base_weights":[9.139779E-3,3.8764668E-1,-3.511258E-1,1.3960395E0,3.0825764E-1,-4.987634E-1,6.4101076E-1,8.775373E-1,-2.3394482E-2,1.0393735E0,-2.5344527E-1,-2.697215E-2,7.7706E-2,9.993772E-2,6.597423E-1,-2.6513105E-2,5.6702536E-2,-2.4481536E-1,-4.756149E-1,-4.494378E-1,1.2709713E0,2.1966033E0,-1.8613001E-2,5.420005E-2,1.6829496E-2,3.0742277E-4,-4.8964712E-1,-9.039278E-3,-2.66962E-2,7.4815415E-2,2.3684726E0,8.706813E-2,1.6230495E-1,-2.1671462E-1,-5.047895E-1,-1.841907E-2,2.4260504E-3,-4.0870628E-1,-2.6354E-2,-2.5346968E-2,-2.861941E-1,-1.5656965E-2,1.2506946E-3,-2.56643E-2,-5.7365783E-3],"categories":[],"categories_nodes":[],"categories_segments":[],"categories_sizes":[],"default_left":[0,0,0,0,0,0,0,0,0,0,0,0,0,0,0,0,0,0,0,0,0,0,0,0,0,0,0,0,0,0,0,0,0,0,0,0,0,0,0,0,0,0,0,0,0],"id":12,"left_children":[1,3,17,13,5,27,7,9,-1,11,15,-1,-1,-1,23,-1,-1,19,25,37,21,29,-1,-1,-1,-1,33,-1,-1,-1,31,-1,-1,35,43,-1,-1,39,-1,-1,41,-1,-1,-1,-1],"loss_changes":[3.3445602E2,9.5893585E1,1.6478516E1,3.7045517E1,2.9912366E2,3.3088531E0,2.0774619E2,1.2012607E2,0E0,4.6456262E2,3.3424732E1,0E0,0E0,0E0,5.3477077E0,0E0,0E0,2.1304489E2,4.2879486E0,1.7549973E0,1.2680264E2,2.9998474E0,0E0,0E0,0E0,0E0,2.009842E0,0E0,0E0,0E0,1.7394165E1,0E0,0E0,1.9371825E0,1.3865662E0,0E0,0E0,4.7257156E0,0E0,0E0,1.8730183E0,0E0,0E0,0E0,0E0],"parents":[2147483647,0,0,1,1,4,4,6,6,7,7,9,9,3,3,10,10,2,2,17,17,20,20,14,14,18,18,5,5,21,21,30,30,26,26,33,33,19,19,37,37,40,40,34,34],"right_children":[2,4,18,14,6,28,8,10,-1,12,16,-1,-1,-1,24,-1,-1,20,26,38,22,30,-1,-1,-1,-1,34,-1,-1,-1,32,-1,-1,36,44,-1,-1,40,-1,-1,42,-1,-1,-1,-1],"split_conditions":[7.7192193E-1,-3.9714384E-1,9.223672E-1,2.5864005E-1,-9.430351E-1,-1.4495306E0,-8.156741E-1,-1.0157634E0,-2.3394482E-2,3.714348E-3,4.0045953E-3,-2.697215E-2,7.7706E-2,9.993772E-2,-1.9762768E0,-2.6513105E-2,5.6702536E-2,8.57636E-1,-2.0382985E-2,7.704691E-1,3.7809566E-1,-2.6617935E-1,-1.8613001E-2,5.420005E-2,1.6829496E-2,3.0742277E-4,3.5272694E-1,-9.039278E-3,-2.66962E-2,7.4815415E-2,3.1970325E-3,8.706813E-2,1.6230495E-1,-6.085407E-1,2.284122E0,-1.841907E-2,2.4260504E-3,1.8401842E-1,-2.6354E-2,-2.5346968E-2,5.073825E-3,-1.5656965E-2,1.2506946E-3,-2.56643E-2,-5.7365783E-3],"split_indices":[2,3,2,12,1,1,1,0,0,13,13,0,0,0,3,0,0,2,13,1,1,1,0,0,0,0,1,0,0,0,13,0,0,18,1,0,0,1,0,0,13,0,0,0,0],"split_type":[0,0,0,0,0,0,0,0,0,0,0,0,0,0,0,0,0,0,0,0,0,0,0,0,0,0,0,0,0,0,0,0,0,0,0,0,0,0,0,0,0,0,0,0,0],"sum_hessian":[2.442315E3,1.1920586E3,1.2502563E3,8.529566E1,1.106763E3,3.222972E2,7.8446576E2,6.472886E2,1.3717719E2,5.669359E2,8.035268E1,1.3900156E2,4.2793436E2,4.555074E1,3.974492E1,6.788075E1,1.2471927E1,6.79112E2,5.7114435E2,5.993005E2,7.981152E1,5.119233E1,2.8619194E1,1.5299462E1,2.444546E1,1.4563945E1,5.5658044E2,3.484446E1,2.8745276E2,1.2535402E1,3.865693E1,2.447042E1,1.4186507E1,3.2677013E1,5.239034E2,2.2510284E1,1.0166729E1,4.0313074E2,1.9616974E2,2.1871767E2,1.8441307E2,1.7207962E2,1.2333452E1,5.104801E2,1.3423307E1],"tree_param":{"num_deleted":"0","num_feature":"21","num_nodes":"45","size_leaf_vector":"1"}},{"base_weights":[-8.415083E-4,1.320067E0,-2.7391115E-2,-2.7321741E-2,2.1591905E-1],"categories":[],"categories_nodes":[],"categories_segments":[],"categories_sizes":[],"default_left":[0,0,0,0,0],"id":13,"left_children":[1,3,-1,-1,-1],"loss_changes":[1.7724264E3,4.023026E3,0E0,0E0,0E0],"parents":[2147483647,0,0,1,1],"right_children":[2,4,-1,-1,-1],"split_conditions":[3E0,2E0,-2.7391115E-2,-2.7321741E-2,2.1591905E-1],"split_indices":[20,20,0,0,0],"split_type":[0,0,0,0,0],"sum_hessian":[2.4482654E3,7.1617505E2,1.7320903E3,4.4163626E2,2.745388E2],"tree_param":{"num_deleted":"0","num_feature":"21","num_nodes":"5","size_leaf_vector":"1"}},{"base_weights":[6.814654E-3,9.070911E-1,-2.7388556E-2,-2.7316367E-2,2.1495274E-1],"categories":[],"categories_nodes":[],"categories_segments":[],"categories_sizes":[],"default_left":[0,0,0,0,0],"id":14,"left_children":[1,3,-1,-1,-1],"loss_changes":[1.2221416E3,4.604161E3,0E0,0E0,0E0],"parents":[2147483647,0,0,1,1],"right_children":[2,4,-1,-1,-1],"split_conditions":[4E0,3E0,-2.7388556E-2,-2.7316367E-2,2.1495274E-1],"split_indices":[20,20,0,0,0],"split_type":[0,0,0,0,0],"sum_hessian":[2.4409932E3,9.308496E2,1.5101434E3,6.5193713E2,2.7891248E2],"tree_param":{"num_deleted":"0","num_feature":"21","num_nodes":"5","size_leaf_vector":"1"}},{"base_weights":[1.1558222E-2,-2.557868E-1,1.1976854E0,-4.6369582E-1,1.649667E0,2.2014918E0,2.7199897E-1,-2.6403759E-2,3.063513E0,-4.2827877E-1,1.6799659E-1,1.5650197E0,-2.64549E-2,-1.2109301E-2,1.2377546E-1,4.0760344E-1,-1.9720104E-1,1.7682468E0,-2.7136428E-2,-5.8527507E-2,2.2597914E0,4.1006118E-2,1.3561676E-1,6.6710997E-1,-2.7049735E-2,1.3600161E0,-1.7491033E-2,2.2071774E0,3.349431E0,2.0195842E-1,1.858322E-2,1.831309E-1,1.14304E-1,2.6762586E-3,1.01007424E-1,-1.1959266E-2,-4.5238543E-1,-4.7682393E-1,7.4039094E-2,-2.616377E-2,7.834717E-1,8.862205E-2,-0E0,-1.4830778E-2,1.607446E-2,-4.8061112E-1,-3.3369537E-3,-2.582103E-2,-2.2126412E-2,-3.2417313E-3,-2.4994409E-2],"categories":[],"categories_nodes":[],"categories_segments":[],"categories_sizes":[],"default_left":[0,0,0,0,0,0,0,0,0,0,0,0,0,0,0,0,0,0,0,0,0,0,0,0,0,0,0,0,0,0,0,0,0,0,0,0,0,0,0,0,0,0,0,0,0,0,0,0,0,0,0],"id":15,"left_children":[1,9,3,49,5,7,11,-1,27,35,15,13,-1,-1,-1,17,23,19,-1,43,21,-1,-1,25,-1,33,-1,29,31,-1,-1,-1,-1,-1,-1,39,37,45,-1,-1,41,-1,-1,-1,-1,47,-1,-1,-1,-1,-1],"loss_changes":[7.7974695E2,1.4688232E2,3.41735E2,1.0800724E0,2.6885535E2,6.009606E2,1.1099191E2,0E0,4.079944E1,1.3950897E1,5.1447174E1,6.984166E1,0E0,0E0,0E0,4.5758673E2,6.953206E1,1.3252942E2,0E0,3.7637136E0,7.186841E1,0E0,0E0,4.834668E1,0E0,3.3055733E1,0E0,1.7119882E2,4.005359E1,0E0,0E0,0E0,0E0,0E0,0E0,3.4915283E1,6.5576416E1,1.7092285E0,0E0,0E0,2.5159357E1,0E0,0E0,0E0,0E0,1.6047668E0,0E0,0E0,0E0,0E0,0E0],"parents":[2147483647,0,0,2,2,4,4,5,5,1,1,6,6,11,11,10,10,15,15,17,17,20,20,16,16,23,23,8,8,27,27,28,28,25,25,9,9,36,36,35,35,40,40,19,19,37,37,45,45,3,3],"right_children":[2,10,4,50,6,8,12,-1,28,36,16,14,-1,-1,-1,18,24,20,-1,44,22,-1,-1,26,-1,34,-1,30,32,-1,-1,-1,-1,-1,-1,40,38,46,-1,-1,42,-1,-1,-1,-1,48,-1,-1,-1,-1,-1],"split_conditions":[9.9534065E-1,4.2922083E-1,3.666143E-1,-8.2750326E-1,-9.8323E-1,4E0,5E0,-2.6403759E-2,-1.3558238E0,-1.4640749E0,-9.8323E-1,1.0229534E0,-2.64549E-2,-1.2109301E-2,1.2377546E-1,5E0,5E0,7.147537E-1,-2.7136428E-2,1.07275926E-4,5.2374864E-1,4.1006118E-2,1.3561676E-1,9.7715235E-1,-2.7049735E-2,3.1882024E-3,-1.7491033E-2,1.2750593E0,3.0434147E-1,2.0195842E-1,1.858322E-2,1.831309E-1,1.14304E-1,2.6762586E-3,1.01007424E-1,4E0,9.230459E-1,8.639151E-1,7.4039094E-2,-2.616377E-2,-1.1248806E0,8.862205E-2,-0E0,-1.4830778E-2,1.607446E-2,4.6239403E-1,-3.3369537E-3,-2.582103E-2,-2.2126412E-2,-3.2417313E-3,-2.4994409E-2],"split_indices":[2,1,16,3,9,20,20,0,5,5,9,2,0,0,0,20,20,2,0,13,1,0,0,2,0,13,0,1,5,0,0,0,0,0,0,20,2,2,0,0,8,0,0,0,0,5,0,0,0,0,0],"split_type":[0,0,0,0,0,0,0,0,0,0,0,0,0,0,0,0,0,0,0,0,0,0,0,0,0,0,0,0,0,0,0,0,0,0,0,0,0,0,0,0,0,0,0,0,0,0,0,0,0,0,0],"sum_hessian":[2.4477292E3,1.9974667E3,4.5026245E2,9.591397E1,3.5434848E2,2.522505E2,1.0209799E2,6.0394573E1,1.9185593E2,1.4209703E3,5.7649634E2,3.9147396E1,6.2950596E1,1.3017626E1,2.6129772E1,3.4937106E2,2.2712529E2,1.4373332E2,2.0563773E2,3.0279596E1,1.1345372E2,2.809457E1,8.535915E1,6.3757374E1,1.6336792E2,3.822725E1,2.5530123E1,5.046997E1,1.4138596E2,2.4560402E1,2.5909569E1,1.07126335E2,3.4259617E1,1.352876E1,2.469849E1,7.965848E1,1.3413119E3,1.3255709E3,1.574095E1,4.9267796E1,3.0390684E1,1.2799264E1,1.7591421E1,2.0018408E1,1.0261189E1,1.3113718E3,1.4199104E1,6.5985364E2,6.515182E2,1.0003768E1,8.59102E1],"tree_param":{"num_deleted":"0","num_feature":"21","num_nodes":"51","size_leaf_vector":"1"}},{"base_weights":[-0E0,4.5218992E-1,-2.7420377E-2,1.3348843E0,-1.3058409E-2,-2.7246043E-2,2.308477E-1,-2.7358085E-2,2.417084E-1],"categories":[],"categories_nodes":[],"categories_segments":[],"categories_sizes":[],"default_left":[0,0,0,0,0,0,0,0,0],"id":16,"left_children":[1,3,-1,5,7,-1,-1,-1,-1],"loss_changes":[6.049933E2,5.503179E2,0E0,2.855711E3,2.2692808E3,0E0,0E0,0E0,0E0],"parents":[2147483647,0,0,1,1,3,3,4,4],"right_children":[2,4,-1,6,8,-1,-1,-1,-1],"split_conditions":[6E0,-9.115299E-1,-2.7420377E-2,5E0,5E0,-2.7246043E-2,2.308477E-1,-2.7358085E-2,2.417084E-1],"split_indices":[20,17,0,20,20,0,0,0,0],"split_type":[0,0,0,0,0,0,0,0,0],"sum_hessian":[2.431703E3,1.3331432E3,1.0985597E3,4.602176E2,8.7292554E2,2.9288892E2,1.6732867E2,7.870746E2,8.585097E1],"tree_param":{"num_deleted":"0","num_feature":"21","num_nodes":"9","size_leaf_vector":"1"}},{"base_weights":[-2.0685026E-3,3.3379133E0,-4.1861302E-1,-3.4901565E-1,2.1025817E-1,-4.8051834E-1,-2.711795E-1,2.1705124E-1,-2.957942E-1,5.404525E-2,-1.1524047E-2,1.6576862E-1,-3.3410868E-1,-1.974367E-1,-2.2697609E-2,-2.1376628E-2,-5.0917417E-3,-0E0,2.3463285E-2,7.3838807E-3,-1.3208534E-2,-4.604919E-1,-2.6542703E-2,-2.4995977E-2,-4.2282864E-1,-3.856678E-1,-2.5513003E-2,-3.2414235E-3,-2.1740042E-2,-6.3485405E-3,-1.9866837E-2],"categories":[],"categories_nodes":[],"categories_segments":[],"categories_sizes":[],"default_left":[0,0,0,0,0,0,0,0,0,0,0,0,0,0,0,0,0,0,0,0,0,0,0,0,0,0,0,0,0,0,0],"id":17,"left_children":[1,3,5,27,-1,21,7,9,11,-1,-1,17,13,15,-1,-1,-1,19,-1,-1,-1,23,-1,-1,25,29,-1,-1,-1,-1,-1],"loss_changes":[3.393232E3,8.693423E2,1.9599792E1,1.0856595E0,0E0,1.3618164E0,8.268021E0,1.4198304E1,1.1420036E1,0E0,0E0,2.8598964E0,9.279495E0,6.0484047E0,0E0,0E0,0E0,1.8914618E0,0E0,0E0,0E0,1.4738617E0,0E0,0E0,1.7702255E0,1.0219002E0,0E0,0E0,0E0,0E0,0E0],"parents":[2147483647,0,0,1,1,2,2,6,6,7,7,8,8,12,12,13,13,11,11,17,17,5,5,21,21,24,24,3,3,25,25],"right_children":[2,4,6,28,-1,22,8,10,12,-1,-1,18,14,16,-1,-1,-1,20,-1,-1,-1,24,-1,-1,26,30,-1,-1,-1,-1,-1],"split_conditions":[-1.3205127E0,-1.3682654E0,7.522304E-1,-1.1248806E0,2.1025817E-1,-1.1748321E-1,-9.997782E-1,1.0107999E0,8.484724E-1,5.404525E-2,-1.1524047E-2,-5.260677E-1,-1.1248806E0,9.230827E-1,-2.2697609E-2,-2.1376628E-2,-5.0917417E-3,8.50309E-1,2.3463285E-2,7.3838807E-3,-1.3208534E-2,2.5864005E-1,-2.6542703E-2,-2.4995977E-2,-7.756951E-1,3.049797E-4,-2.5513003E-2,-3.2414235E-3,-2.1740042E-2,-6.3485405E-3,-1.9866837E-2],"split_indices":[1,1,1,8,0,7,0,1,1,0,0,8,8,1,0,0,0,6,0,0,0,12,0,0,0,15,0,0,0,0,0],"split_type":[0,0,0,0,0,0,0,0,0,0,0,0,0,0,0,0,0,0,0,0,0,0,0,0,0,0,0,0,0,0,0],"sum_hessian":[2.4347366E3,2.6914203E2,2.1655945E3,5.1167965E1,2.1797406E2,1.5200942E3,6.4550024E2,2.9121513E1,6.163787E2,1.0161857E1,1.8959656E1,4.5439697E1,5.70939E2,2.7084976E2,3.0008926E2,7.6230804E1,1.9461896E2,2.9687643E1,1.5752054E1,1.9020544E1,1.0667098E1,1.1046234E3,4.154708E2,5.244966E2,5.8012683E2,4.165571E2,1.6356976E2,1.4352273E1,3.681569E1,2.1347692E1,3.952094E2],"tree_param":{"num_deleted":"0","num_feature":"21","num_nodes":"31","size_leaf_vector":"1"}},{"base_weights":[-7.3309448E-3,-2.957116E-1,1.2489188E0,3.202765E0,-4.755767E-1,3.4064737E-1,3.0553749E0,1.0374519E0,2.0884033E-1,2.1198629E-1,1.9098136E0,9.7558904E-1,2.1174227E-1,-2.4528217E-2,1.9862118E-1,1.0480146E-1,2.291167E0,1.4154373E0,-1.561906E-1,-0E0,1.9118862E-1,1.3322337E-1,3.1146744E-1,-5.036786E-1,6.154591E-1,2.0350928E0,-2.5227636E-2,5.667725E-2,1.7681736E-1,-1.7101437E-1,-2.6735235E-2,-3.0560368E-1,3.0337298E-1,-7.0771845E-3,1.099152E-1,-2.0631347E-2,5.6156725E-2,1.3854341E-1,-2.3107601E-2,-2.0657383E-2,4.873104E-2,-1.7254399E-3,5.4230817E-2,-1.9151893E-2,3.4744E-2,1.1943685E-1,7.3945306E-2],"categories":[],"categories_nodes":[],"categories_segments":[],"categories_sizes":[],"default_left":[0,0,0,0,0,0,0,0,0,0,0,0,0,0,0,0,0,0,0,0,0,0,0,0,0,0,0,0,0,0,0,0,0,0,0,0,0,0,0,0,0,0,0,0,0,0,0],"id":18,"left_children":[1,3,5,7,23,15,9,13,-1,-1,11,21,-1,-1,-1,17,27,19,31,43,-1,-1,41,29,25,45,-1,-1,-1,37,-1,35,33,-1,-1,-1,-1,39,-1,-1,-1,-1,-1,-1,-1,-1,-1],"loss_changes":[8.917443E2,1.2620912E3,7.516225E2,2.0146198E2,5.9498108E1,1.4197928E2,2.0099207E2,1.5156912E2,0E0,0E0,1.7053076E2,6.5221985E1,0E0,0E0,0E0,9.734588E1,4.3871704E1,1.6039096E2,1.6519577E1,9.956528E0,0E0,0E0,1.36332245E1,1.8833618E1,8.0491356E1,1.2166748E0,0E0,0E0,0E0,1.5565382E1,0E0,2.8448635E1,5.1737465E1,0E0,0E0,0E0,0E0,3.857567E1,0E0,0E0,0E0,0E0,0E0,0E0,0E0,0E0,0E0],"parents":[2147483647,0,0,1,1,2,2,3,3,6,6,10,10,7,7,5,5,15,15,17,17,11,11,4,4,24,24,16,16,23,23,18,18,32,32,31,31,29,29,37,37,22,22,19,19,25,25],"right_children":[2,4,6,8,24,16,10,14,-1,-1,12,22,-1,-1,-1,18,28,20,32,44,-1,-1,42,30,26,46,-1,-1,-1,38,-1,36,34,-1,-1,-1,-1,40,-1,-1,-1,-1,-1,-1,-1,-1,-1],"split_conditions":[1.0553763E0,-1.1127894E0,2.4828067E-1,-2.302356E-1,1.5051141E0,-8.9174643E-4,-5.9553194E-1,-9.972514E-2,2.0884033E-1,2.1198629E-1,-8.312503E-4,-7.344629E-1,2.1174227E-1,-2.4528217E-2,1.9862118E-1,-7.2692233E-1,6.754604E-1,-8.0510485E-1,6.3019705E-1,2.6958243E-3,1.9118862E-1,1.3322337E-1,4.876747E-3,-1.2991849E0,1.9008158E0,8.661528E-2,-2.5227636E-2,5.667725E-2,1.7681736E-1,-7.975024E-2,-2.6735235E-2,9.856676E-1,-5.8289903E-1,-7.0771845E-3,1.099152E-1,-2.0631347E-2,5.6156725E-2,-2.1837826E-1,-2.3107601E-2,-2.0657383E-2,4.873104E-2,-1.7254399E-3,5.4230817E-2,-1.9151893E-2,3.4744E-2,1.1943685E-1,7.3945306E-2],"split_indices":[1,18,9,9,5,14,5,3,0,0,14,18,0,0,0,18,3,18,0,13,0,0,15,5,5,1,0,0,0,1,0,3,18,0,0,0,0,9,0,0,0,0,0,0,0,0,0],"split_type":[0,0,0,0,0,0,0,0,0,0,0,0,0,0,0,0,0,0,0,0,0,0,0,0,0,0,0,0,0,0,0,0,0,0,0,0,0,0,0,0,0,0,0,0,0,0,0],"sum_hessian":[2.4551907E3,1.9978248E3,4.5736575E2,9.6815544E1,1.9010093E3,3.0527148E2,1.520943E2,3.080619E1,6.600935E1,7.3375305E1,7.8718994E1,5.7210796E1,2.15082E1,2.0517828E1,1.0288362E1,2.734594E2,3.181205E1,4.5333366E1,2.2812605E2,2.9105795E1,1.6227571E1,1.5127348E1,4.208345E1,1.854409E3,4.66003E1,2.0578E1,2.60223E1,1.7610569E1,1.4201482E1,1.6084175E2,1.6935673E3,1.7367102E2,5.445504E1,4.4358124E1,1.0096916E1,1.6261855E2,1.1052461E1,7.6826225E1,8.4015526E1,4.59522E1,3.0874027E1,2.8886568E1,1.3196881E1,1.8818853E1,1.0286942E1,1.0088874E1,1.0489125E1],"tree_param":{"num_deleted":"0","num_feature":"21","num_nodes":"47","size_leaf_vector":"1"}},{"base_weights":[-1.8418639E-4,-2.7413849E-2,1.3866284E0,2.1209273E0,-4.5348257E-1,2.371422E-1,-2.7294895E-2,-2.396981E-1,-2.6977753E-2,4.433132E-2,-2.5241435E-2],"categories":[],"categories_nodes":[],"categories_segments":[],"categories_sizes":[],"default_left":[0,0,0,0,0,0,0,0,0,0,0],"id":19,"left_children":[1,-1,3,5,7,-1,-1,9,-1,-1,-1],"loss_changes":[1.854394E3,0E0,9.359977E2,3.460929E3,3.420971E0,0E0,0E0,2.0016048E1,0E0,0E0,0E0],"parents":[2147483647,0,0,2,2,3,3,4,4,7,7],"right_children":[2,-1,4,6,8,-1,-1,10,-1,-1,-1],"split_conditions":[8E0,-2.7413849E-2,6.6586864E-1,9E0,1E1,2.371422E-1,-2.7294895E-2,-2.7379724E-1,-2.6977753E-2,4.433132E-2,-2.5241435E-2],"split_indices":[20,0,5,20,20,0,0,3,0,0,0],"split_type":[0,0,0,0,0,0,0,0,0,0,0],"sum_hessian":[2.4348745E3,1.7459176E3,6.889568E2,4.9266913E2,1.9628769E2,2.4826352E2,2.444056E2,5.988051E1,1.3640718E2,1.047749E1,4.940302E1],"tree_param":{"num_deleted":"0","num_feature":"21","num_nodes":"11","size_leaf_vector":"1"}},{"base_weights":[-6.551486E-3,-2.74303E-2,2.253756E0,1.5304806E0,3.6917865E0,4.6038804E0,-2.9076654E-1,4.1409135E0,2.6333556E-2,2.2788392E-1,-2.2500195E-2,2.3963855E-1,1.3043156E-1,-3.3689618E-1,1.6223503E-2,-2.7881277E-1,-2.5904361E-2,2.590637E-2,-2.398728E-2],"categories":[],"categories_nodes":[],"categories_segments":[],"categories_sizes":[],"default_left":[0,0,0,0,0,0,0,0,0,0,0,0,0,0,0,0,0,0,0],"id":20,"left_children":[1,-1,3,5,7,11,13,9,-1,-1,-1,-1,-1,15,-1,17,-1,-1,-1],"loss_changes":[2.9839187E3,0E0,4.8521167E2,1.7711604E3,2.1848145E2,3.2758545E1,6.3143787E0,2.6781006E2,0E0,0E0,0E0,0E0,0E0,1.939846E0,0E0,2.4679026E1,0E0,0E0,0E0],"parents":[2147483647,0,0,2,2,3,3,4,4,7,7,5,5,6,6,13,13,15,15],"right_children":[2,-1,4,6,8,12,14,10,-1,-1,-1,-1,-1,16,-1,18,-1,-1,-1],"split_conditions":[9E0,-2.74303E-2,-1.017052E0,6.477953E-1,4.4332677E-1,-5.240024E-1,-1.13593E-3,1E1,2.6333556E-2,2.2788392E-1,-2.2500195E-2,2.3963855E-1,1.3043156E-1,-1.013759E0,1.6223503E-2,8.484724E-1,-2.5904361E-2,2.590637E-2,-2.398728E-2],"split_indices":[20,0,4,1,1,12,14,20,0,0,0,0,0,17,0,1,0,0,0],"split_type":[0,0,0,0,0,0,0,0,0,0,0,0,0,0,0,0,0,0,0],"sum_hessian":[2.4312898E3,1.961785E3,4.695047E2,3.1385507E2,1.5564961E2,1.1649085E2,1.9736423E2,1.3587035E2,1.9779276E1,1.2472759E2,1.114275E1,1.05025444E2,1.1465408E1,1.8514458E2,1.2219654E1,1.4508252E2,4.0062054E1,2.8157978E1,1.1692454E2],"tree_param":{"num_deleted":"0","num_feature":"21","num_nodes":"19","size_leaf_vector":"1"}},{"base_weights":[1.3230429E-3,-2.7394561E-2,2.1465948E-1],"categories":[],"categories_nodes":[],"categories_segments":[],"categories_sizes":[],"default_left":[0,0,0],"id":21,"left_children":[1,-1,-1],"loss_changes":[5.7436826E3,0E0,0E0],"parents":[2147483647,0,0],"right_children":[2,-1,-1],"split_conditions":[1E1,-2.7394561E-2,2.1465948E-1],"split_indices":[20,0,0],"split_type":[0,0,0],"sum_hessian":[2.4305469E3,2.155258E3,2.7528888E2],"tree_param":{"num_deleted":"0","num_feature":"21","num_nodes":"3","size_leaf_vector":"1"}},{"base_weights":[3.877108E-3,-4.986331E-1,3.7712324E-1,-2.666067E-2,6.412511E-1,8.108884E-1,-4.5469946E-1,2.2447522E0,7.348905E-1,1.6530441E-1,9.6253026E-1,5.991599E-2,-1.2615188E-2,1.4416796E-1,1.923609E-3,5.633345E-2,2.1031244E-2,-3.373149E-1,-5.1059943E-1,-4.390751E-1,1.11871455E-2,-2.6097601E-2,-2.9109883E-1,5.7434256E-4,-2.4017217E-2,-2.5399406E-2,-0E0,-1.0341751E-2,-2.4758255E-2],"categories":[],"categories_nodes":[],"categories_segments":[],"categories_sizes":[],"default_left":[0,0,0,0,0,0,0,0,0,0,0,0,0,0,0,0,0,0,0,0,0,0,0,0,0,0,0,0,0],"id":22,"left_children":[1,17,3,-1,5,7,27,13,9,11,15,-1,-1,-1,-1,-1,-1,19,21,25,-1,-1,23,-1,-1,-1,-1,-1,-1],"loss_changes":[4.552626E2,1.7323608E0,3.357876E2,0E0,2.0203674E2,1.016131E2,1.2005234E0,6.364395E1,1.1490613E2,1.13449234E2,5.5729187E1,0E0,0E0,0E0,0E0,0E0,0E0,5.233305E0,2.0874634E0,1.9339933E0,0E0,0E0,3.6871996E0,0E0,0E0,0E0,0E0,0E0,0E0],"parents":[2147483647,0,0,2,2,4,4,5,5,8,8,9,9,7,7,10,10,1,1,17,17,18,18,22,22,19,19,6,6],"right_children":[2,18,4,-1,6,8,28,14,10,12,16,-1,-1,-1,-1,-1,-1,20,22,26,-1,-1,24,-1,-1,-1,-1,-1,-1],"split_conditions":[-1.043741E-1,-1.3748442E0,-9.7785205E-1,-2.666067E-2,6.6586864E-1,-9.689481E-1,8.9577353E-1,-7.7533555E-1,6.34672E-1,-9.0695363E-1,1.3745114E0,5.991599E-2,-1.2615188E-2,1.4416796E-1,1.923609E-3,5.633345E-2,2.1031244E-2,-4.1113818E-1,-3.2213435E-1,8.50309E-1,1.11871455E-2,-2.6097601E-2,6.3019705E-1,5.7434256E-4,-2.4017217E-2,-2.5399406E-2,-0E0,-1.0341751E-2,-2.4758255E-2],"split_indices":[5,3,17,0,5,17,5,3,5,3,11,0,0,0,0,0,0,5,5,6,0,0,0,0,0,0,0,0,0],"split_type":[0,0,0,0,0,0,0,0,0,0,0,0,0,0,0,0,0,0,0,0,0,0,0,0,0,0,0,0,0],"sum_hessian":[2.4187695E3,1.0298483E3,1.3889214E3,3.114931E2,1.0774282E3,9.3382385E2,1.4360439E2,4.5324444E1,8.8849945E2,2.5509978E2,6.3339966E2,7.3559525E1,1.8154025E2,3.467862E1,1.06458235E1,4.8435342E2,1.4904623E2,7.7346405E1,9.5250183E2,6.682587E1,1.0520535E1,9.011472E2,5.13546E1,1.842265E1,3.293195E1,5.678965E1,1.003622E1,2.3614885E1,1.199895E2],"tree_param":{"num_deleted":"0","num_feature":"21","num_nodes":"29","size_leaf_vector":"1"}},{"base_weights":[-8.9789685E-3,1.9813969E0,-2.734676E-2,-2.7232362E-2,1.9710448E-1],"categories":[],"categories_nodes":[],"categories_segments":[],"categories_sizes":[],"default_left":[0,0,0,0,0],"id":23,"left_children":[1,3,-1,-1,-1],"loss_changes":[2.6146924E3,2.5774116E3,0E0,0E0,0E0],"parents":[2147483647,0,0,1,1],"right_children":[2,4,-1,-1,-1],"split_conditions":[2E0,1E0,-2.734676E-2,-2.7232362E-2,1.9710448E-1],"split_indices":[20,20,0,0,0],"split_type":[0,0,0,0,0],"sum_hessian":[2.4376577E3,5.178902E2,1.9197675E3,2.2639088E2,2.914993E2],"tree_param":{"num_deleted":"0","num_feature":"21","num_nodes":"5","size_leaf_vector":"1"}},{"base_weights":[1.2679788E-3,-4.974988E-1,1.9863212E0,6.053187E-1,2.6760798E0,-8.00459E-3,2.7924147E0,-2.7286155E-2,6.097352E-1,1.7956212E-2,1.4602393E-1,1.309523E-1,3.4857875E-1,1.5186704E0,-3.4325838E-1,2.1575949E-1,8.579108E-2,8.355524E-1,-2.226633E-1,-2.1297084E-2,7.111742E-2,1.8450077E0,2.7075669E-2,1.354868E-1,4.60638E-2,-2.274907E-2,-1.1673179E-3,1.6413899E-3,-2.5235618E-2],"categories":[],"categories_nodes":[],"categories_segments":[],"categories_sizes":[],"default_left":[0,0,0,0,0,0,0,0,0,0,0,0,0,0,0,0,0,0,0,0,0,0,0,0,0,0,0,0,0],"id":24,"left_children":[1,7,3,11,5,-1,9,-1,13,-1,-1,-1,15,21,27,17,-1,19,25,-1,-1,23,-1,-1,-1,-1,-1,-1,-1],"loss_changes":[2.4231008E3,1.0546628E2,4.655951E2,8.5917786E1,1.106814E2,0E0,9.519238E1,0E0,7.363735E1,0E0,0E0,0E0,2.7478426E1,1.2105873E1,3.1200233E0,3.89144E1,0E0,4.526369E1,3.6977425E0,0E0,0E0,2.2410889E1,0E0,0E0,0E0,0E0,0E0,0E0,0E0],"parents":[2147483647,0,0,2,2,4,4,1,1,6,6,3,3,8,8,12,12,15,15,17,17,13,13,21,21,18,18,14,14],"right_children":[2,8,4,12,6,-1,10,-1,14,-1,-1,-1,16,22,28,18,-1,20,26,-1,-1,24,-1,-1,-1,-1,-1,-1,-1],"split_conditions":[1.6618602E0,1.6615508E0,3.1970234E-3,-3.958571E-3,-9.782771E-1,-8.00459E-3,-8.359853E-1,-2.7286155E-2,-3.0942676E-3,1.7956212E-2,1.4602393E-1,1.309523E-1,1.0759034E0,7.3816943E-1,-3.9749447E-2,2.5465873E-1,8.579108E-2,2.0073643E-1,7.399097E-1,-2.1297084E-2,7.111742E-2,4.1489786E-1,2.7075669E-2,1.354868E-1,4.60638E-2,-2.274907E-2,-1.1673179E-3,1.6413899E-3,-2.5235618E-2],"split_indices":[7,7,13,14,1,0,12,0,14,0,0,0,11,8,15,1,0,0,0,0,0,1,0,0,0,0,0,0,0],"split_type":[0,0,0,0,0,0,0,0,0,0,0,0,0,0,0,0,0,0,0,0,0,0,0,0,0,0,0,0,0],"sum_hessian":[2.4405688E3,1.9506442E3,4.8992462E2,1.6407776E2,3.2584686E2,1.2556215E1,3.1329065E2,1.8703131E3,8.0331055E1,1.6128563E1,2.971621E2,1.7368883E1,1.4670888E2,4.1302567E1,3.902849E1,1.3509645E2,1.1612427E1,5.642674E1,7.8669716E1,1.755118E1,3.8875557E1,2.9815866E1,1.1486699E1,1.4153551E1,1.5662316E1,3.4000195E1,4.4669518E1,1.0425649E1,2.8602839E1],"tree_param":{"num_deleted":"0","num_feature":"21","num_nodes":"29","size_leaf_vector":"1"}},{"base_weights":[6.087062E-4,8.415712E-1,-2.7309192E-2,-2.723909E-2,1.7553298E-1],"categories":[],"categories_nodes":[],"categories_segments":[],"categories_sizes":[],"default_left":[0,0,0,0,0],"id":25,"left_children":[1,3,-1,-1,-1],"loss_changes":[1.121451E3,3.5591123E3,0E0,0E0,0E0],"parents":[2147483647,0,0,1,1],"right_children":[2,4,-1,-1,-1],"split_conditions":[4E0,3E0,-2.7309192E-2,-2.723909E-2,1.7553298E-1],"split_indices":[20,20,0,0,0],"split_type":[0,0,0,0,0],"sum_hessian":[2.4318875E3,9.5860004E2,1.4732874E3,6.311243E2,3.2747574E2],"tree_param":{"num_deleted":"0","num_feature":"21","num_nodes":"5","size_leaf_vector":"1"}},{"base_weights":[-1.3376977E-3,-4.5673686E-1,5.081279E-1,8.4854436E-1,-1.19251E-1,-1.335935E-1,1.1477213E0,1.9624472E0,7.3161614E-1,-3.233154E-1,1.0431222E-1,5.953563E-1,9.162467E-2,4.794639E-2,-2.1605307E-2,2.3737502E0,1.5222983E0,2.7147291E-2,9.2809536E-2,-2.6693208E-2,-0E0,5.40377E-1,-2.8520203E-1,1.4811802E-1,9.896741E-2,-6.5367245E-3,7.510543E-1,5.785961E-2,1.9458482E-2,-0E0,-4.0537703E-1,-0E0,-4.6257532E-1,-6.469499E-2,-3.5276985E-1,1.3483244E-2,-1.2652759E-2,-1.5478762E-2,4.267274E-3,-2.3717271E-1,-4.7255498E-1,-2.2180045E-2,-0E0,-1.8818842E-2,-0E0,-2.441824E-2,-1.3397852E-2,1.1234953E-2,-5.7005654E-3,-2.6755735E-2,-4.5311108E-1,-2.1353295E-2,-2.5076473E-2],"categories":[],"categories_nodes":[],"categories_segments":[],"categories_sizes":[],"default_left":[0,0,0,0,0,0,0,0,0,0,0,0,0,0,0,0,0,0,0,0,0,0,0,0,0,0,0,0,0,0,0,0,0,0,0,0,0,0,0,0,0,0,0,0,0,0,0,0,0,0,0,0,0],"id":26,"left_children":[1,31,3,5,19,9,7,15,11,29,-1,13,-1,-1,-1,23,17,-1,-1,-1,21,25,33,-1,-1,35,27,-1,-1,47,41,-1,39,37,45,-1,-1,-1,-1,43,49,-1,-1,-1,-1,-1,-1,-1,-1,-1,51,-1,-1],"loss_changes":[5.648152E2,3.1834717E0,2.4596594E2,2.2002185E2,2.0515602E1,7.589901E1,1.9255109E2,3.179358E1,5.6827164E1,4.3278084E0,0E0,1.2886328E2,0E0,0E0,0E0,1.7921875E1,2.999759E1,0E0,0E0,0E0,4.976691E1,1.3451576E1,2.928585E0,0E0,0E0,2.9041865E0,1.1346176E1,0E0,0E0,1.4090502E0,2.165926E0,0E0,2.5846558E0,2.6421614E0,1.7153034E0,0E0,0E0,0E0,0E0,2.0866616E0,1.3095093E0,0E0,0E0,0E0,0E0,0E0,0E0,0E0,0E0,0E0,1.0272675E0,0E0,0E0],"parents":[2147483647,0,0,2,2,3,3,6,6,5,5,8,8,11,11,7,7,16,16,4,4,20,20,15,15,21,21,26,26,9,9,1,1,22,22,25,25,33,33,32,32,30,30,39,39,34,34,29,29,40,40,50,50],"right_children":[2,32,4,6,20,10,8,16,12,30,-1,14,-1,-1,-1,24,18,-1,-1,-1,22,26,34,-1,-1,36,28,-1,-1,48,42,-1,40,38,46,-1,-1,-1,-1,44,50,-1,-1,-1,-1,-1,-1,-1,-1,-1,52,-1,-1],"split_conditions":[3.666143E-1,-1.5678755E0,-9.8323E-1,3.9299157E-1,-2.1837826E-1,2.0830747E-1,-3.2213435E-1,-3.9749447E-2,1.5051141E0,-1.4640749E0,1.0431222E-1,1.3342806E0,9.162467E-2,4.794639E-2,-2.1605307E-2,-1.2059628E0,-1.0265867E0,2.7147291E-2,9.2809536E-2,-2.6693208E-2,-1.5450217E-1,-9.668889E-1,-1.068488E0,1.4811802E-1,9.896741E-2,-6.6249156E-1,-8.359853E-1,5.785961E-2,1.9458482E-2,-1.1717347E0,-6.006522E-1,-0E0,-9.0695363E-1,-8.9014167E-1,-5.9553194E-1,1.3483244E-2,-1.2652759E-2,-1.5478762E-2,4.267274E-3,-1.4204696E0,-6.6806865E-1,-2.2180045E-2,-0E0,-1.8818842E-2,-0E0,-2.441824E-2,-1.3397852E-2,1.1234953E-2,-5.7005654E-3,-2.6755735E-2,-1.19447164E-1,-2.1353295E-2,-2.5076473E-2],"split_indices":[16,1,9,1,9,12,5,15,5,5,0,5,0,0,0,5,3,0,0,0,9,5,3,0,0,18,12,0,0,3,18,0,3,18,5,0,0,0,0,3,5,0,0,0,0,0,0,0,0,0,7,0,0],"split_type":[0,0,0,0,0,0,0,0,0,0,0,0,0,0,0,0,0,0,0,0,0,0,0,0,0,0,0,0,0,0,0,0,0,0,0,0,0,0,0,0,0,0,0,0,0,0,0,0,0,0,0,0,0],"sum_hessian":[2.426373E3,1.2820405E3,1.1443324E3,7.4246387E2,4.0186853E2,1.7283853E2,5.6962537E2,1.9091734E2,3.78708E2,1.6019139E2,1.26471405E1,3.3874014E2,3.9967854E1,2.5081892E2,8.7921234E1,9.593634E1,9.4981E1,2.529224E1,6.968877E1,8.894566E1,3.1292285E2,1.0772495E2,2.051979E2,3.5587666E1,6.034867E1,2.9116653E1,7.86083E1,3.51694E1,4.34389E1,3.3045586E1,1.27145805E2,1.7344656E1,1.2646959E3,5.127343E1,1.5392447E2,1.2165738E1,1.6950914E1,2.1182636E1,3.0090796E1,5.785893E1,1.2068369E3,1.16742256E2,1.0403553E1,3.565044E1,2.2208487E1,5.413568E1,9.978879E1,1.0316512E1,2.2729074E1,2.7136688E2,9.354701E2,6.241213E2,3.113488E2],"tree_param":{"num_deleted":"0","num_feature":"21","num_nodes":"53","size_leaf_vector":"1"}},{"base_weights":[-1.1795141E-2,4.0941355E-1,-2.7341181E-2,-2.7306575E-2,1.8761854E-1],"categories":[],"categories_nodes":[],"categories_segments":[],"categories_sizes":[],"default_left":[0,0,0,0,0],"id":27,"left_children":[1,3,-1,-1,-1],"loss_changes":[5.535946E2,4.385408E3,0E0,0E0,0E0],"parents":[2147483647,0,0,1,1],"right_children":[2,4,-1,-1,-1],"split_conditions":[6E0,5E0,-2.7341181E-2,-2.7306575E-2,1.8761854E-1],"split_indices":[20,20,0,0,0],"split_type":[0,0,0,0,0],"sum_hessian":[2.447717E3,1.3688014E3,1.0789155E3,1.0648551E3,3.0394632E2],"tree_param":{"num_deleted":"0","num_feature":"21","num_nodes":"5","size_leaf_vector":"1"}},{"base_weights":[1.5667492E-3,2.833691E0,-4.0859807E-1,-1.8813455E-2,3.3476114E0,1.7192166E-1,9.596573E-2,-2.5709221E-2,-3.6104575E-1,-3.9613882E-1,2.2341609E-2,-2.4199044E-2,4.0163338E-1,1.21146515E-1,-1.6420315E-1,-4.4925848E-1,-2.69387E-1,-9.124843E-2,-2.2690544E-2,-1.623973E-2,1.0367066E-2,1.7846888E-2,-1.587965E-2,-2.5875136E-2,-3.9974952E-1,-2.4349831E-2,-1.8405847E-2],"categories":[],"categories_nodes":[],"categories_segments":[],"categories_sizes":[],"default_left":[0,0,0,0,0,0,0,0,0,0,0,0,0,0,0,0,0,0,0,0,0,0,0,0,0,0,0],"id":28,"left_children":[1,3,7,-1,5,-1,-1,-1,9,15,11,-1,13,-1,21,23,17,19,-1,-1,-1,-1,-1,-1,25,-1,-1],"loss_changes":[2.822497E3,5.1100293E2,1.0526001E1,0E0,2.7999512E1,0E0,0E0,0E0,2.0140625E1,8.9088745E0,2.4880756E1,0E0,8.6863365E1,0E0,5.347188E0,3.0358124E0,1.3245596E1,1.5408684E1,0E0,0E0,0E0,0E0,0E0,0E0,1.4379349E0,0E0,0E0],"parents":[2147483647,0,0,1,1,4,4,2,2,8,8,10,10,12,12,9,9,16,16,17,17,14,14,15,15,24,24],"right_children":[2,4,8,-1,6,-1,-1,-1,10,16,12,-1,14,-1,22,24,18,20,-1,-1,-1,-1,-1,-1,26,-1,-1],"split_conditions":[-1.3205127E0,-1.1831981E0,-9.849409E-1,-1.8813455E-2,-1.0152684E0,1.7192166E-1,9.596573E-2,-2.5709221E-2,9.6186566E-1,6.192648E-1,7.1115136E-1,-2.4199044E-2,1.0792488E0,1.21146515E-1,-8.443947E-1,3.714348E-3,-9.8323E-1,3.1705822E-3,-2.2690544E-2,-1.623973E-2,1.0367066E-2,1.7846888E-2,-1.587965E-2,-2.5875136E-2,-2.1837826E-1,-2.4349831E-2,-1.8405847E-2],"split_indices":[1,5,17,0,0,0,0,0,5,1,1,0,1,0,17,13,9,13,0,0,0,0,0,0,9,0,0],"split_type":[0,0,0,0,0,0,0,0,0,0,0,0,0,0,0,0,0,0,0,0,0,0,0,0,0,0,0],"sum_hessian":[2.4220254E3,3.060464E2,2.115979E3,4.20512E1,2.6399518E2,2.4662683E2,1.7368357E1,6.493882E2,1.466591E3,1.3454923E3,1.21098625E2,5.0866344E1,7.023228E1,1.5095593E1,5.513669E1,9.4225946E2,4.0323285E2,2.0792636E2,1.9530649E2,1.18134705E2,8.9791664E1,1.1110789E1,4.4025898E1,3.861967E2,5.5606274E2,1.3816829E2,4.1789447E2],"tree_param":{"num_deleted":"0","num_feature":"21","num_nodes":"27","size_leaf_vector":"1"}},{"base_weights":[1.2071194E-2,2.9287043E0,-1.7128298E-1,-4.7140744E-1,1.0358416E0,-2.7261043E-2,2.6512558E0,1.8817984E-1,-2.6360417E-2,-2.4576768E-2,1.7525941E-1,-4.8637304E-1,4.6031174E-1,-5.1494557E-1,6.176841E-1,1.7731223E0,-2.4845455E-2,9.772046E-2,-2.395496E-2,1.2693888E-1,4.2357814E-2,-5.3022116E-1,-1.4217082E-1,-2.2352483E-2,7.678054E-2,-2.1700047E-2,-2.6949212E-2],"categories":[],"categories_nodes":[],"categories_segments":[],"categories_sizes":[],"default_left":[0,0,0,0,0,0,0,0,0,0,0,0,0,0,0,0,0,0,0,0,0,0,0,0,0,0,0],"id":29,"left_children":[1,9,3,11,5,-1,7,-1,-1,-1,-1,13,17,21,15,19,-1,-1,-1,-1,-1,25,23,-1,-1,-1,-1],"loss_changes":[1.3160009E3,2.9143237E2,8.362472E2,2.668808E1,1.1765648E3,0E0,8.0944775E2,0E0,0E0,0E0,0E0,5.8530396E1,4.5417034E1,9.746826E0,6.2964905E1,1.4363625E1,0E0,0E0,0E0,0E0,0E0,1.1766968E0,3.9927464E1,0E0,0E0,0E0,0E0],"parents":[2147483647,0,0,2,2,4,4,6,6,1,1,3,3,11,11,14,14,12,12,15,15,13,13,22,22,21,21],"right_children":[2,10,4,12,6,-1,8,-1,-1,-1,-1,14,18,22,16,20,-1,-1,-1,-1,-1,26,24,-1,-1,-1,-1],"split_conditions":[-1.0395777E0,7E0,1.0553763E0,1.2086893E0,7E0,-2.7261043E-2,8E0,1.8817984E-1,-2.6360417E-2,-2.4576768E-2,1.7525941E-1,1.5051141E0,-7.7270705E-1,1.0294014E0,8E0,1.6671183E0,-2.4845455E-2,9.772046E-2,-2.395496E-2,1.2693888E-1,4.2357814E-2,-1.2059628E0,1.3006225E-1,-2.2352483E-2,7.678054E-2,-2.1700047E-2,-2.6949212E-2],"split_indices":[18,20,1,2,20,0,20,0,0,0,0,5,17,2,20,5,0,0,0,0,0,5,8,0,0,0,0],"split_type":[0,0,0,0,0,0,0,0,0,0,0,0,0,0,0,0,0,0,0,0,0,0,0,0,0,0,0],"sum_hessian":[2.4459272E3,1.4421823E2,2.301709E3,1.8443123E3,4.5739664E2,2.3117366E2,2.2622298E2,1.6765468E2,5.8568302E1,2.061875E1,1.2359947E2,1.816378E3,2.793426E1,1.7716793E3,4.4698788E1,2.2067598E1,2.2631187E1,1.0778574E1,1.7155685E1,1.0843796E1,1.1223803E1,1.6995509E3,7.212837E1,6.1937103E1,1.0191271E1,1.5285785E2,1.546693E3],"tree_param":{"num_deleted":"0","num_feature":"21","num_nodes":"27","size_leaf_vector":"1"}},{"base_weights":[6.960344E-3,2.1839698E-1,-5.0581867E-1,8.0796784E-1,-2.5444847E-1,1.8641617E0,4.998509E-1,-3.754833E-1,1.6569105E-1,1.4892206E0,-5.3326797E-2,2.3749619E0,-1.696874E-1,-1.8793032E-2,1.8469115E-1,-3.2494992E-1,6.7167115E-1,8.318146E-2,-2.3104958E-2,2.4885467E-1,-3.3997276E-1,-2.2367014E-2,5.4883105E-1,4.5475435E-1,-3.743265E-1,-1.5801985E-2,7.439251E-1,-2.35708E-2,5.263248E-2,1.31106395E-2,-2.5918437E-2,-3.0666924E-1,-2.6272679E-2,-2.6695374E-2,-1.0171836E-2,-1.9849125E-2,9.669615E-4,1.2306482E-1,4.977433E-2,3.3205204E-2,-2.1675516E-2,-2.4773097E-2,-1.7297556E-1,6.508169E-3,-2.1151869E-2,-2.6018936E-2,-3.8256884E-1,-9.974639E-3,-2.6011381E-2],"categories":[],"categories_nodes":[],"categories_segments":[],"categories_sizes":[],"default_left":[0,0,0,0,0,0,0,0,0,0,0,0,0,0,0,0,0,0,0,0,0,0,0,0,0,0,0,0,0,0,0,0,0,0,0,0,0,0,0,0,0,0,0,0,0,0,0,0,0],"id":30,"left_children":[1,3,45,5,19,7,9,41,-1,11,15,13,29,-1,-1,35,17,-1,-1,21,23,-1,25,37,31,-1,27,-1,-1,-1,-1,33,-1,-1,-1,-1,-1,39,-1,-1,-1,-1,43,-1,-1,-1,47,-1,-1],"loss_changes":[2.6483334E2,4.8273724E2,1.0271301E0,2.4994998E2,4.186497E1,5.669144E2,3.2941364E2,1.5261955E0,0E0,3.1896106E2,7.681413E1,5.15144E2,1.2600388E1,0E0,0E0,7.396019E0,1.2066594E2,0E0,0E0,3.031193E1,2.323133E1,0E0,1.7827864E1,6.052094E0,7.985367E0,0E0,3.2383617E1,0E0,0E0,0E0,0E0,1.2896629E1,0E0,0E0,0E0,0E0,0E0,8.75101E0,0E0,0E0,0E0,0E0,3.0956664E0,0E0,0E0,0E0,1.9924202E0,0E0,0E0],"parents":[2147483647,0,0,1,1,3,3,5,5,6,6,9,9,11,11,10,10,16,16,4,4,19,19,20,20,22,22,26,26,12,12,24,24,31,31,15,15,23,23,37,37,7,7,42,42,2,2,46,46],"right_children":[2,4,46,6,20,8,10,42,-1,12,16,14,30,-1,-1,36,18,-1,-1,22,24,-1,26,38,32,-1,28,-1,-1,-1,-1,34,-1,-1,-1,-1,-1,40,-1,-1,-1,-1,44,-1,-1,-1,48,-1,-1],"split_conditions":[6.477953E-1,-8.496821E-1,1.0421417E0,-9.782771E-1,-1.5450217E-1,-1.0072657E0,-1.0362309E0,-8.6408496E-1,1.6569105E-1,1.2352359E-1,4.5722216E-1,1.20228104E-1,-1.013759E0,-1.8793032E-2,1.8469115E-1,3.7809566E-1,-1.013759E0,8.318146E-2,-2.3104958E-2,2.2452462E-1,-1.0579007E0,-2.2367014E-2,-1.2907912E0,7.729575E-2,1.6616963E0,-1.5801985E-2,-1.1528089E0,-2.35708E-2,5.263248E-2,1.31106395E-2,-2.5918437E-2,-1.0072657E0,-2.6272679E-2,-2.6695374E-2,-1.0171836E-2,-1.9849125E-2,9.669615E-4,-1.1652424E0,4.977433E-2,3.3205204E-2,-2.1675516E-2,-2.4773097E-2,-4.8358956E-1,6.508169E-3,-2.1151869E-2,-2.6018936E-2,-6.004234E-1,-9.974639E-3,-2.6011381E-2],"split_indices":[1,10,17,1,9,1,3,5,0,1,1,1,17,0,0,1,17,0,0,10,11,0,5,5,7,0,17,0,0,0,0,1,0,0,0,0,0,5,0,0,0,0,5,0,0,0,3,0,0],"split_type":[0,0,0,0,0,0,0,0,0,0,0,0,0,0,0,0,0,0,0,0,0,0,0,0,0,0,0,0,0,0,0,0,0,0,0,0,0,0,0,0,0,0,0,0,0,0,0,0,0],"sum_hessian":[2.4325762E3,1.7238091E3,7.0876715E2,7.677096E2,9.560995E2,1.718813E2,5.958283E2,6.7554375E1,1.0432693E2,2.13705E2,3.821233E2,1.3940785E2,7.429714E1,4.5166656E1,9.4241196E1,2.791017E2,1.0302159E2,5.5124134E1,4.7897457E1,1.372882E2,8.1881134E2,4.0420082E1,9.686811E1,3.2557644E1,7.8625366E2,1.698324E1,7.988487E1,1.5571683E1,6.431319E1,3.2251854E1,4.204529E1,5.484416E2,2.3781207E2,1.6785892E2,3.8058267E2,2.3263148E2,4.6470226E1,2.1705105E1,1.0852539E1,1.1656643E1,1.0048462E1,3.9213814E1,2.8340557E1,1.1537962E1,1.6802595E1,6.257731E2,8.29941E1,3.895613E1,4.4037968E1],"tree_param":{"num_deleted":"0","num_feature":"21","num_nodes":"49","size_leaf_vector":"1"}},{"base_weights":[5.8258194E-3,-2.734955E-2,2.0161211E0,1.9137675E-1,-2.7127042E-2],"categories":[],"categories_nodes":[],"categories_segments":[],"categories_sizes":[],"default_left":[0,0,0,0,0],"id":31,"left_children":[1,-1,3,-1,-1],"loss_changes":[2.7014492E3,0E0,2.4347263E3,0E0,0E0],"parents":[2147483647,0,0,2,2],"right_children":[2,-1,4,-1,-1],"split_conditions":[9E0,-2.734955E-2,1E1,1.9137675E-1,-2.7127042E-2],"split_indices":[20,0,20,0,0],"split_type":[0,0,0,0,0],"sum_hessian":[2.424503E3,1.9017262E3,5.227767E2,3.0603445E2,2.1674222E2],"tree_param":{"num_deleted":"0","num_feature":"21","num_nodes":"5","size_leaf_vector":"1"}},{"base_weights":[-0E0,-2.731567E-2,1.7449668E-1],"categories":[],"categories_nodes":[],"categories_segments":[],"categories_sizes":[],"default_left":[0,0,0],"id":32,"left_children":[1,-1,-1],"loss_changes":[4.6525767E3,0E0,0E0],"parents":[2147483647,0,0],"right_children":[2,-1,-1],"split_conditions":[1E1,-2.731567E-2,1.7449668E-1],"split_indices":[20,0,0],"split_type":[0,0,0],"sum_hessian":[2.4355452E3,2.1065183E3,3.2902695E2],"tree_param":{"num_deleted":"0","num_feature":"21","num_nodes":"3","size_leaf_vector":"1"}},{"base_weights":[4.9772635E-3,-4.9618462E-1,3.6408272E-1,-2.2200106E-1,7.194834E-1,8.650811E-1,-2.6598826E-2,4.042597E-1,1.1547103E0,1.6212791E0,8.343897E-2,1.0571617E-1,-1.5109919E-2,-3.5684532E-1,6.1062205E-1,-1.3931142E-2,9.3556815E-1,1.4979779E0,1.4379995E-1,1.4481255E0,1.0079042E0,5.5996772E-2,9.189592E-2,2.0844119E-2,-5.221032E-1,1.3116609E-1,-4.156312E-1,4.4426825E-2,-1.9340163E-2,4.8657137E-1,-1.8806186E-2,-1.706135E-2,5.004956E-1,7.825361E-2,-2.0117437E-2,-2.6732162E-2,-2.8888863E-1,-1.4527191E-3,-1.9791031E-2,3.1037092E-2,5.2768614E-2,-2.2275545E-2,5.718823E-3,-2.6810825E-2,-2.701542E-1,-1.9700637E-2,1.4176511E-3,9.207488E-2,5.8149565E-2,3.43595E-2,7.4063377E-3],"categories":[],"categories_nodes":[],"categories_segments":[],"categories_sizes":[],"default_left":[0,0,0,0,0,0,0,0,0,0,0,0,0,0,0,0,0,0,0,0,0,0,0,0,0,0,0,0,0,0,0,0,0,0,0,0,0,0,0,0,0,0,0,0,0,0,0,0,0,0,0],"id":33,"left_children":[1,23,3,13,5,7,-1,9,19,11,41,-1,-1,25,15,-1,17,47,27,21,39,-1,-1,29,43,31,35,-1,-1,49,-1,-1,33,-1,-1,-1,37,-1,-1,-1,-1,-1,-1,-1,45,-1,-1,-1,-1,-1,-1],"loss_changes":[4.363921E2,1.3996948E1,2.9502905E2,6.0872932E1,1.617774E2,1.04629944E2,0E0,1.20212105E2,1.9721924E1,6.3303635E1,4.5275545E0,0E0,0E0,1.3743576E1,2.2964523E1,0E0,2.4019382E1,1.8987274E0,1.2053472E1,1.8508484E1,5.1928406E0,0E0,0E0,1.0350688E1,3.113556E0,9.861634E0,6.0746536E0,0E0,0E0,1.3768482E0,0E0,0E0,3.1164764E1,0E0,0E0,0E0,5.5417995E0,0E0,0E0,0E0,0E0,0E0,0E0,0E0,2.6019158E0,0E0,0E0,0E0,0E0,0E0,0E0],"parents":[2147483647,0,0,2,2,4,4,5,5,7,7,9,9,3,3,14,14,16,16,8,8,19,19,1,1,13,13,18,18,23,23,25,25,32,32,26,26,36,36,20,20,10,10,24,24,44,44,17,17,29,29],"right_children":[2,24,4,14,6,8,-1,10,20,12,42,-1,-1,26,16,-1,18,48,28,22,40,-1,-1,30,44,32,36,-1,-1,50,-1,-1,34,-1,-1,-1,38,-1,-1,-1,-1,-1,-1,-1,46,-1,-1,-1,-1,-1,-1],"split_conditions":[-1.043741E-1,-6.88509E-3,-3.1679907E-1,2.5864005E-1,6.6586864E-1,3.2177018E-3,-2.6598826E-2,-9.3574095E-1,4.0045953E-3,1.9805197E-1,-1.017052E0,1.0571617E-1,-1.5109919E-2,2.534582E-3,-1.1248806E0,-1.3931142E-2,3.5026532E-1,3.8376122E-3,1.9805197E-1,3.7389204E-3,6.0316175E-1,5.5996772E-2,9.189592E-2,-1.1248806E0,-3.2213435E-1,-9.4758844E-1,-9.7610587E-1,4.4426825E-2,-1.9340163E-2,-5.8180046E-1,-1.8806186E-2,-1.706135E-2,6.0316175E-1,7.825361E-2,-2.0117437E-2,-2.6732162E-2,3.1890408E-3,-1.4527191E-3,-1.9791031E-2,3.1037092E-2,5.2768614E-2,-2.2275545E-2,5.718823E-3,-2.6810825E-2,-1.808574E-2,-1.9700637E-2,1.4176511E-3,9.207488E-2,5.8149565E-2,3.43595E-2,7.4063377E-3],"split_indices":[5,14,8,12,5,13,0,17,13,5,4,0,0,13,8,0,6,13,5,13,5,0,0,8,5,17,17,0,0,11,0,0,5,0,0,0,13,0,0,0,0,0,0,0,12,0,0,0,0,0,0],"split_type":[0,0,0,0,0,0,0,0,0,0,0,0,0,0,0,0,0,0,0,0,0,0,0,0,0,0,0,0,0,0,0,0,0,0,0,0,0,0,0,0,0,0,0,0,0,0,0,0,0,0,0],"sum_hessian":[2.4161855E3,1.00754236E3,1.4086433E3,5.3101196E2,8.7763135E2,7.8696075E2,9.067057E1,3.055257E2,4.8143506E2,6.2541363E1,2.4298434E2,5.004889E1,1.24924755E1,4.5822055E2,7.279138E1,1.8852335E1,5.393905E1,3.0529413E1,2.3409637E1,1.5636806E2,3.2506702E2,8.768863E1,6.867943E1,4.6630875E1,9.609115E2,4.769409E1,4.1052646E2,1.01423025E1,1.3267334E1,2.230136E1,2.4329514E1,2.0003405E1,2.7690687E1,1.284453E1,1.4846156E1,2.0713698E2,2.0338948E2,6.1776768E1,1.4161272E2,3.8572693E1,2.8649432E2,1.1405269E1,2.3157907E2,9.060781E2,5.4833366E1,4.046671E1,1.4366658E1,1.2117404E1,1.841201E1,1.2000037E1,1.0301323E1],"tree_param":{"num_deleted":"0","num_feature":"21","num_nodes":"51","size_leaf_vector":"1"}},{"base_weights":[-2.1603077E-3,-3.5448438E-1,3.0973318E-1,-3.749895E-2,6.8495995E-1,2.0436716E0,-2.7146876E-2,-2.688857E-2,1.6296288E-1,1.3763392E0,-2.7179077E-2,-2.6742512E-2,1.6249527E-1,-2.527256E-1,-4.7350106E-1,1.6029428E-1,-2.7184134E-2,2.0251817E-1,-2.7153036E-2,-2.1185285E-1,7.072055E-2,1.4632932E-2,-2.4745867E-2],"categories":[],"categories_nodes":[],"categories_segments":[],"categories_sizes":[],"default_left":[0,0,0,0,0,0,0,0,0,0,0,0,0,0,0,0,0,0,0,0,0,0,0],"id":34,"left_children":[1,13,3,9,5,7,-1,-1,-1,11,-1,-1,-1,15,17,-1,-1,19,-1,21,-1,-1,-1],"loss_changes":[2.6715582E2,1.3701813E1,1.683739E2,4.7952E2,1.0359015E3,9.2823035E2,0E0,0E0,0E0,6.354037E2,0E0,0E0,0E0,6.276441E2,2.5249756E1,0E0,0E0,2.7597698E1,0E0,6.3390727E0,0E0,0E0,0E0],"parents":[2147483647,0,0,2,2,4,4,5,5,3,3,9,9,1,1,13,13,14,14,17,17,19,19],"right_children":[2,14,4,10,6,8,-1,-1,-1,12,-1,-1,-1,16,18,-1,-1,20,-1,22,-1,-1,-1],"split_conditions":[9.813058E-1,-9.7675514E-1,4.0045953E-3,2E0,2E0,1E0,-2.7146876E-2,-2.688857E-2,1.6296288E-1,1E0,-2.7179077E-2,-2.6742512E-2,1.6249527E-1,2E0,2E0,1.6029428E-1,-2.7184134E-2,-9.417397E-1,-2.7153036E-2,-1.5450217E-1,7.072055E-2,1.4632932E-2,-2.4745867E-2],"split_indices":[4,17,13,20,20,20,0,0,0,20,0,0,0,20,20,0,0,17,0,9,0,0,0],"split_type":[0,0,0,0,0,0,0,0,0,0,0,0,0,0,0,0,0,0,0,0,0,0,0],"sum_hessian":[2.419609E3,1.1373174E3,1.2822915E3,6.652562E2,6.170352E2,2.9297174E2,3.240635E2,9.372448E1,1.9924727E2,1.745793E2,4.9067694E2,8.649352E1,8.808578E1,6.18081E2,5.192364E2,4.7126247E1,5.709547E2,4.7227127E1,4.7200925E2,3.5193707E1,1.2033422E1,1.162353E1,2.3570177E1],"tree_param":{"num_deleted":"0","num_feature":"21","num_nodes":"23","size_leaf_vector":"1"}},{"base_weights":[4.2872173E-3,-2.344063E-1,1.7568417E0,8.48448E-3,2.2035117E0,-3.5057023E-1,5.4687274E-1,-3.989839E-1,1.6179044E0,2.3029006E0,-2.5370449E-2,5.4632765E-1,-3.8907415E-1,1.3105898E0,-2.2486707E-2,1.0206784E-1,-2.2606572E-2,-1.9442225E-1,-2.715595E-2,-3.4689796E-1,1.2687612E0,-0E0,1.0643848E-1,1.253547E-1,3.0979007E-2,-2.0151585E-2,1.0554209E-2,-2.4070244E-2,6.5696967E-1,-1.511618E-2,1.0935656E-1,1.8244306E0,1.2368387E-1,1.2954949E-1,-2.4868513E-2,5.044961E-2,-2.6732225E-2,-2.412239E-2,3.9356865E-2],"categories":[],"categories_nodes":[],"categories_segments":[],"categories_sizes":[],"default_left":[0,0,0,0,0,0,0,0,0,0,0,0,0,0,0,0,0,0,0,0,0,0,0,0,0,0,0,0,0,0,0,0,0,0,0,0,0,0,0],"id":35,"left_children":[1,5,3,27,31,11,7,35,9,23,-1,13,17,15,-1,-1,-1,19,-1,25,21,-1,-1,-1,-1,-1,-1,-1,29,-1,-1,33,-1,-1,-1,37,-1,-1,-1],"loss_changes":[1.0276332E3,1.9640512E2,2.2823633E2,2.1553173E1,2.0215942E1,6.573865E1,2.8550018E2,9.723509E0,1.9490909E2,3.1759033E1,0E0,6.1465363E1,5.383661E1,6.0631996E1,0E0,0E0,0E0,1.80021E2,0E0,2.333271E1,8.311348E1,0E0,0E0,0E0,0E0,0E0,0E0,0E0,4.497621E1,0E0,0E0,1.8527637E2,0E0,0E0,0E0,1.5709718E1,0E0,0E0,0E0],"parents":[2147483647,0,0,2,2,1,1,6,6,8,8,5,5,11,11,13,13,12,12,17,17,20,20,9,9,19,19,3,3,28,28,4,4,31,31,7,7,35,35],"right_children":[2,6,4,28,32,12,8,36,10,24,-1,14,18,16,-1,-1,-1,20,-1,26,22,-1,-1,-1,-1,-1,-1,-1,30,-1,-1,34,-1,-1,-1,38,-1,-1,-1],"split_conditions":[1.5283245E0,8.8230073E-1,6.0316175E-1,-1.8476927E-1,9.59125E-1,-1.7331337E0,9.59125E-1,3.1970325E-3,3.1970253E-3,2.0073643E-1,-2.5370449E-2,-9.7966737E-1,3.1970325E-3,3.1970325E-3,-2.2486707E-2,1.0206784E-1,-2.2606572E-2,3.1970234E-3,-2.715595E-2,1.0421417E0,-8.359853E-1,-0E0,1.0643848E-1,1.253547E-1,3.0979007E-2,-2.0151585E-2,1.0554209E-2,-2.4070244E-2,1.9482002E0,-1.511618E-2,1.0935656E-1,3.1970253E-3,1.2368387E-1,1.2954949E-1,-2.4868513E-2,-1.017052E0,-2.6732225E-2,-2.412239E-2,3.9356865E-2],"split_indices":[9,10,5,5,12,5,12,13,13,0,0,17,13,13,0,0,0,13,0,17,12,0,0,0,0,0,0,0,9,0,0,13,0,0,0,4,0,0,0],"split_type":[0,0,0,0,0,0,0,0,0,0,0,0,0,0,0,0,0,0,0,0,0,0,0,0,0,0,0,0,0,0,0,0,0,0,0,0,0,0,0],"sum_hessian":[2.4444531E3,2.1516414E3,2.9281165E2,6.011512E1,2.3269652E2,1.8744109E3,2.7723044E2,1.4708809E2,1.3014236E2,9.865506E1,3.1487314E1,7.5866776E1,1.7985442E3,4.323998E1,3.2626793E1,3.079907E1,1.2440908E1,7.976422E2,1.0009019E3,7.2341364E2,7.4228546E1,3.0339619E1,4.3888927E1,8.720944E1,1.1445613E1,6.58794E2,6.461965E1,3.365977E1,2.6455347E1,1.6334188E1,1.0121158E1,1.0064317E2,1.3205334E2,7.585193E1,2.4791246E1,3.2853218E1,1.1423486E2,1.859344E1,1.425978E1],"tree_param":{"num_deleted":"0","num_feature":"21","num_nodes":"39","size_leaf_vector":"1"}},{"base_weights":[9.776864E-4,-1.3034756E-1,4.5697862E-1,8.6561286E-1,-2.9381362E-1,1.6986389E0,4.6023256E-1,-1.7353998E-1,3.505913E-1,7.032796E-1,-1.9768377E-1,5.7014894E-2,2.0924327E-1,7.206387E-2,6.7203367E-1,1.8281406E0,1.7633092E-2,-2.8347334E-1,-8.403725E-2,2.7975699E-2,-4.034812E-1,4.7030676E-2,-3.5440657E-1,1.127623E0,4.2785597E-1,1.2575564E-1,-1.9761653E-1,3.254446E-2,1.944532E0,3.6675405E-2,8.8179454E-2,2.9253477E-1,-2.7026588E-1,3.0982736E-2,-1.734863E-2,-1.9678894E-1,4.7457877E-1,2.6294848E-2,-1.9887468E-2,3.0848831E-2,-1.720054E-3,9.834517E-3,-6.434522E-3,1.7828956E-2,-4.399268E-1,-2.7962396E-1,-5.1015705E-1,4.0051315E-2,-1.7346939E-3,3.3192553E-2,-1.09333225E-1,5.121006E-1,-3.6059301E-3,-2.2308204E-2,-1.0625282E-2,1.0484018E-1,7.295733E-2,-1.6874276E-2,8.522794E-3,-0E0,-2.2504872E-2,-8.344135E-3,1.9552004E-2,-2.1422444E-2,-5.018416E-3,-2.1039871E-2,-2.2376401E-4,-2.3527196E-2,-1.9921907E-3,-3.6416654E-3,-2.643374E-2,-1.082162E-2,2.6479028E-3,1.2011098E-2,3.6218937E-2],"categories":[],"categories_nodes":[],"categories_segments":[],"categories_sizes":[],"default_left":[0,0,0,0,0,0,0,0,0,0,0,0,0,0,0,0,0,0,0,0,0,0,0,0,0,0,0,0,0,0,0,0,0,0,0,0,0,0,0,0,0,0,0,0,0,0,0,0,0,0,0,0,0,0,0,0,0,0,0,0,0,0,0,0,0,0,0,0,0,0,0,0,0,0,0],"id":36,"left_children":[1,7,3,5,43,15,13,17,9,11,37,-1,51,35,23,27,-1,21,19,25,65,31,45,29,39,41,71,-1,55,-1,-1,33,63,-1,-1,57,47,-1,-1,-1,-1,-1,-1,49,67,53,69,-1,-1,-1,59,73,-1,-1,-1,-1,-1,-1,-1,61,-1,-1,-1,-1,-1,-1,-1,-1,-1,-1,-1,-1,-1,-1,-1],"loss_changes":[1.4669641E2,3.9694218E1,1.6887488E2,1.1911319E2,9.342491E0,1.8520264E1,1.9516544E1,1.70364E1,3.1190336E1,2.0236801E1,9.919606E0,0E0,4.930976E0,1.0649462E1,1.6866974E1,1.2386871E1,0E0,1.8565666E1,3.5205708E1,1.6084406E1,1.4278145E0,1.14434E1,7.38575E0,1.2180618E1,9.794041E0,9.380568E0,1.25601E0,0E0,4.204529E0,0E0,0E0,1.7800098E1,1.5150003E0,0E0,0E0,3.3341813E0,7.2292385E0,0E0,0E0,0E0,0E0,0E0,0E0,6.660656E0,1.3111973E0,4.883007E0,1.2751274E0,0E0,0E0,0E0,2.5563636E0,1.1861095E0,0E0,0E0,0E0,0E0,0E0,0E0,0E0,3.4935737E0,0E0,0E0,0E0,0E0,0E0,0E0,0E0,0E0,0E0,0E0,0E0,0E0,0E0,0E0,0E0],"parents":[2147483647,0,0,2,2,3,3,1,1,8,8,9,9,6,6,5,5,7,7,18,18,17,17,14,14,19,19,15,15,23,23,21,21,31,31,13,13,10,10,24,24,25,25,4,4,22,22,36,36,43,43,12,12,45,45,28,28,35,35,50,50,59,59,32,32,20,20,44,44,46,46,26,26,51,51],"right_children":[2,8,4,6,44,16,14,18,10,12,38,-1,52,36,24,28,-1,22,20,26,66,32,46,30,40,42,72,-1,56,-1,-1,34,64,-1,-1,58,48,-1,-1,-1,-1,-1,-1,50,68,54,70,-1,-1,-1,60,74,-1,-1,-1,-1,-1,-1,-1,62,-1,-1,-1,-1,-1,-1,-1,-1,-1,-1,-1,-1,-1,-1,-1],"split_conditions":[9.5354277E-1,1.0792488E0,-2.302356E-1,-9.1413707E-1,2.447445E-1,7.5773925E-1,-1.1652424E0,1.2513614E-1,-2.1837826E-1,-9.7675514E-1,1.3393296E-1,5.7014894E-2,-6.88509E-3,-1.0818855E0,-3.4143638E-3,-1.2438282E0,1.7633092E-2,-1.2991849E0,6.6586864E-1,8.8230073E-1,8.69339E-1,8.365824E-1,8.3998364E-1,1.3342806E0,1.2513614E-1,1.1667819E0,2.4445755E0,3.254446E-2,-9.4758844E-1,3.6675405E-2,8.8179454E-2,1.7882061E-1,-1.7331337E0,3.0982736E-2,-1.734863E-2,-8.2190776E-1,-6.8198335E-1,2.6294848E-2,-1.9887468E-2,3.0848831E-2,-1.720054E-3,9.834517E-3,-6.434522E-3,-9.6042705E-1,1.3342806E0,-1.0767491E0,-1.0978082E0,4.0051315E-2,-1.7346939E-3,3.3192553E-2,-2.3026744E-2,-1.106427E0,-3.6059301E-3,-2.2308204E-2,-1.0625282E-2,1.0484018E-1,7.295733E-2,-1.6874276E-2,8.522794E-3,-7.5642866E-1,-2.2504872E-2,-8.344135E-3,1.9552004E-2,-2.1422444E-2,-5.018416E-3,-2.1039871E-2,-2.2376401E-4,-2.3527196E-2,-1.9921907E-3,-3.6416654E-3,-2.643374E-2,-1.082162E-2,2.6479028E-3,1.2011098E-2,3.6218937E-2],"split_indices":[2,1,9,17,9,5,5,5,9,17,12,0,14,3,14,3,0,5,5,10,2,2,10,5,5,9,10,0,17,0,0,9,5,0,0,17,10,0,0,0,0,0,0,17,5,5,3,0,0,0,3,3,0,0,0,0,0,0,0,3,0,0,0,0,0,0,0,0,0,0,0,0,0,0,0],"split_type":[0,0,0,0,0,0,0,0,0,0,0,0,0,0,0,0,0,0,0,0,0,0,0,0,0,0,0,0,0,0,0,0,0,0,0,0,0,0,0,0,0,0,0,0,0,0,0,0,0,0,0,0,0,0,0,0,0,0,0,0,0,0,0,0,0,0,0,0,0,0,0,0,0,0,0],"sum_hessian":[2.428033E3,1.88421E3,5.4382306E2,3.5276602E2,1.9105704E2,1.1399312E2,2.3877292E2,1.7309323E3,1.5327771E2,9.4026405E1,5.9251312E1,4.8477768E1,4.5548637E1,8.600343E1,1.5276949E2,1.031844E2,1.0808716E1,7.720166E2,9.5891565E2,7.086524E2,2.5026324E2,1.3446867E2,6.375479E2,5.1154373E1,1.01615105E2,4.9709393E2,2.1155847E2,1.0376591E1,9.280781E1,3.3422638E1,1.7731735E1,7.726761E1,5.7201077E1,5.1963238E1,2.5304369E1,5.061644E1,3.5386993E1,1.1685731E1,4.7565582E1,7.3150375E1,2.846473E1,3.9132553E2,1.0576841E2,5.9460922E1,1.3159612E2,4.357149E2,2.0183302E2,2.2242163E1,1.3144829E1,1.0258654E1,4.9202267E1,2.2989758E1,2.2558878E1,1.2043737E2,3.1527753E2,6.736918E1,2.5438635E1,3.8217857E1,1.2398582E1,3.7124607E1,1.2077661E1,2.5751308E1,1.1373299E1,2.6552874E1,3.0648201E1,2.3789049E2,1.237275E1,1.20253044E2,1.1343079E1,1.0114409E1,1.9171861E2,1.99853E2,1.170547E1,1.2479889E1,1.050987E1],"tree_param":{"num_deleted":"0","num_feature":"21","num_nodes":"75","size_leaf_vector":"1"}},{"base_weights":[-3.3027567E-3,5.827421E-1,-2.729382E-2,-2.727282E-2,3.4944983E0,2.0570414E-1,1.7135395E-1],"categories":[],"categories_nodes":[],"categories_segments":[],"categories_sizes":[],"default_left":[0,0,0,0,0,0,0],"id":37,"left_children":[1,3,-1,-1,5,-1,-1],"loss_changes":[7.7969543E2,3.8707632E3,0E0,0E0,2.887207E0,0E0,0E0],"parents":[2147483647,0,0,1,1,4,4],"right_children":[2,4,-1,-1,6,-1,-1],"split_conditions":[5E0,4E0,-2.729382E-2,-2.727282E-2,-1.9924064E-1,2.0570414E-1,1.7135395E-1],"split_indices":[20,20,0,0,16,0,0],"split_type":[0,0,0,0,0,0,0],"sum_hessian":[2.4449143E3,1.1746343E3,1.27028E3,8.468762E2,3.2775803E2,2.6287928E1,3.014701E2],"tree_param":{"num_deleted":"0","num_feature":"21","num_nodes":"7","size_leaf_vector":"1"}},{"base_weights":[4.4876197E-3,-3.7492472E-1,2.8064317E-1,-2.7199803E-2,9.339739E-1,1.5467343E-1,-2.7229607E-2,-1.5209205E-1,-2.7179262E-2,-2.7126685E-2,1.7472713E-1],"categories":[],"categories_nodes":[],"categories_segments":[],"categories_sizes":[],"default_left":[0,0,0,0,0,0,0,0,0,0,0],"id":38,"left_children":[1,7,3,-1,5,-1,-1,9,-1,-1,-1],"loss_changes":[2.5763312E2,3.8627045E1,7.6711505E2,0E0,2.538288E3,0E0,0E0,6.42079E2,0E0,0E0,0E0],"parents":[2147483647,0,0,2,2,4,4,1,1,7,7],"right_children":[2,8,4,-1,6,-1,-1,10,-1,-1,-1],"split_conditions":[-2.1837826E-1,6E0,5E0,-2.7199803E-2,6E0,1.5467343E-1,-2.7229607E-2,5E0,-2.7179262E-2,-2.7126685E-2,1.7472713E-1],"split_indices":[9,20,20,0,20,0,0,20,0,0,0],"split_type":[0,0,0,0,0,0,0,0,0,0,0],"sum_hessian":[2.448049E3,1.0298907E3,1.4181582E3,6.264091E2,7.9174915E2,3.216443E2,4.7010486E2,4.463897E2,5.835011E2,4.0403085E2,4.2358833E1],"tree_param":{"num_deleted":"0","num_feature":"21","num_nodes":"11","size_leaf_vector":"1"}},{"base_weights":[1.77803E-3,4.992547E-1,-3.833631E-1,2.5666537E0,-4.070775E-1,-1.8511793E-2,1.4641301E-1,8.983114E-1,-4.099666E-1,-1.701773E-2,1.2214404E-1,-2.5103107E-2,-2.9156113E-1,2.1100473E-1,-3.363583E-1,-4.2810053E-1,2.1396197E-1,4.5513522E-2,-1.5176821E-2,-2.1206129E-1,-2.243379E-2,-1.363972E-2,3.3869386E-2,3.8440388E-2,3.5465233E-2,2.279838E-2,-1.8494023E-2,-2.5633438E-2,-4.0803584E-1,-3.6200434E-1,-2.6530504E-2,-1.6676484E-2,-2.3905365E-2],"categories":[],"categories_nodes":[],"categories_segments":[],"categories_sizes":[],"default_left":[0,0,0,0,0,0,0,0,0,0,0,0,0,0,0,0,0,0,0,0,0,0,0,0,0,0,0,0,0,0,0,0,0],"id":39,"left_children":[1,3,7,5,15,-1,-1,9,11,-1,-1,-1,13,23,19,27,17,-1,-1,21,-1,-1,-1,25,-1,-1,-1,-1,29,31,-1,-1,-1],"loss_changes":[4.6589948E2,1.9900022E3,4.793448E1,3.4711646E2,1.0234497E1,0E0,0E0,5.778689E1,1.44592285E1,0E0,0E0,0E0,1.3880234E1,4.3171434E0,7.51931E0,1.095398E0,1.0737328E1,0E0,0E0,1.5238067E1,0E0,0E0,0E0,7.817173E0,0E0,0E0,0E0,0E0,3.227745E0,1.3808289E0,0E0,0E0,0E0],"parents":[2147483647,0,0,1,1,3,3,2,2,7,7,8,8,12,12,4,4,16,16,14,14,19,19,13,13,23,23,15,15,28,28,29,29],"right_children":[2,4,8,6,16,-1,-1,10,12,-1,-1,-1,14,24,20,28,18,-1,-1,22,-1,-1,-1,26,-1,-1,-1,-1,30,32,-1,-1,-1],"split_conditions":[-1.0152684E0,-1.0767491E0,-1.3205127E0,-1.1277057E0,7.522304E-1,-1.8511793E-2,1.4641301E-1,-1.3682654E0,7.522304E-1,-1.701773E-2,1.2214404E-1,-2.5103107E-2,8.484724E-1,-6.076215E-1,-1.1248806E0,-8.449472E-1,1.0553763E0,4.5513522E-2,-1.5176821E-2,1.3365625E0,-2.243379E-2,-1.363972E-2,3.3869386E-2,-6.749995E-1,3.5465233E-2,2.279838E-2,-1.8494023E-2,-2.5633438E-2,-1.1748321E-1,-8.156741E-1,-2.6530504E-2,-1.6676484E-2,-2.3905365E-2],"split_indices":[0,5,1,5,1,0,0,1,1,0,0,0,1,18,8,1,1,0,0,0,0,0,0,18,0,0,0,0,7,1,0,0,0],"split_type":[0,0,0,0,0,0,0,0,0,0,0,0,0,0,0,0,0,0,0,0,0,0,0,0,0,0,0,0,0,0,0,0,0],"sum_hessian":[2.4222031E3,1.0577611E3,1.364442E3,3.222062E2,7.355549E2,3.507808E1,2.871281E2,2.660104E1,1.3378411E3,1.482107E1,1.177997E1,7.472684E2,5.9057263E2,4.6629055E1,5.439436E2,7.1295703E2,2.2597857E1,1.0034658E1,1.2563198E1,2.6267987E2,2.8126373E2,2.472512E2,1.5428662E1,3.6467358E1,1.0161698E1,1.895296E1,1.7514397E1,1.2530642E2,5.876506E2,4.342585E2,1.5339207E2,3.567524E2,7.75061E1],"tree_param":{"num_deleted":"0","num_feature":"21","num_nodes":"33","size_leaf_vector":"1"}},{"base_weights":[1.8649858E-3,-2.960718E-1,1.0976127E0,-4.0635476E-1,1.4772837E-1,8.615048E-2,2.1475718E0,1.4361014E-2,2.7597756E0,-3.2541406E-1,1.8994149E0,-4.365075E-1,6.709443E-1,-1.8081386E-1,1.3866208E-1,2.4713619E-2,2.8789868E0,1.4619946E-1,1.0984265E0,-2.1831978E-2,9.821417E-2,6.820823E-2,1.5034765E-1,-2.6433423E-1,-2.6867298E-2,-4.3747047E-1,3.5315958E-1,1.0058774E-1,-2.5072096E-2,-2.9452848E-1,7.226975E-2,-2.4971642E-2,3.112431E-1,8.658669E-2,-1.2104774E-2,-1.1756759E-2,-2.6398947E-2,-2.299678E-2,1.8773103E-2,-2.5517387E-2,1.4745573E-3],"categories":[],"categories_nodes":[],"categories_segments":[],"categories_sizes":[],"default_left":[0,0,0,0,0,0,0,0,0,0,0,0,0,0,0,0,0,0,0,0,0,0,0,0,0,0,0,0,0,0,0,0,0,0,0,0,0,0,0,0,0],"id":40,"left_children":[1,3,5,11,-1,9,7,29,15,31,17,23,13,37,-1,-1,21,-1,19,-1,-1,-1,-1,25,-1,35,27,-1,-1,39,-1,-1,33,-1,-1,-1,-1,-1,-1,-1,-1],"loss_changes":[7.9727875E2,6.8947845E2,5.5294073E2,6.1288788E1,0E0,2.0403622E2,3.319054E2,2.9651678E1,5.0597534E1,2.5148285E1,3.8454514E1,3.1108276E1,9.56332E1,6.8509045E0,0E0,0E0,3.196045E1,0E0,4.3404816E1,0E0,0E0,0E0,0E0,7.265676E1,0E0,9.418304E0,2.1261246E2,0E0,0E0,4.1383367E0,0E0,0E0,4.049667E1,0E0,0E0,0E0,0E0,0E0,0E0,0E0,0E0],"parents":[2147483647,0,0,1,1,2,2,6,6,5,5,3,3,12,12,8,8,10,10,18,18,16,16,11,11,23,23,26,26,7,7,9,9,32,32,25,25,13,13,29,29],"right_children":[2,4,6,12,-1,10,8,30,16,32,18,24,14,38,-1,-1,22,-1,20,-1,-1,-1,-1,26,-1,36,28,-1,-1,40,-1,-1,34,-1,-1,-1,-1,-1,-1,-1,-1],"split_conditions":[1.0107999E0,7.8825206E-1,2.2452462E-1,1.5051141E0,1.4772837E-1,1.1004324E0,1.0251011E0,-1.2141971E-3,-8.8881415E-1,1.095276E-1,-5.9553194E-1,-3.2213435E-1,8.73847E-1,3.5026532E-1,1.3866208E-1,2.4713619E-2,3.120911E-3,1.4619946E-1,3.1617132E-3,-2.1831978E-2,9.821417E-2,6.820823E-2,1.5034765E-1,-7.159358E-1,-2.6867298E-2,-1.2991849E0,-1.0762583E0,1.0058774E-1,-2.5072096E-2,-9.972514E-2,7.226975E-2,-2.4971642E-2,-5.9553194E-1,8.658669E-2,-1.2104774E-2,-1.1756759E-2,-2.6398947E-2,-2.299678E-2,1.8773103E-2,-2.5517387E-2,1.4745573E-3],"split_indices":[1,3,10,5,0,2,2,14,3,8,5,5,10,6,0,0,13,0,13,0,0,0,0,5,0,5,1,0,0,3,0,0,5,0,0,0,0,0,0,0,0],"split_type":[0,0,0,0,0,0,0,0,0,0,0,0,0,0,0,0,0,0,0,0,0,0,0,0,0,0,0,0,0,0,0,0,0,0,0,0,0,0,0,0,0],"sum_hessian":[2.4317861E3,1.9118127E3,5.199733E2,1.8499949E3,6.1817852E1,2.656709E2,2.5430244E2,5.7181217E1,1.9712122E2,2.1670065E2,4.8970257E1,1.8008102E3,4.918475E1,3.5252605E1,1.3932144E1,1.0395315E1,1.867259E2,2.0117744E1,2.8852512E1,1.0215038E1,1.8637474E1,1.5758759E1,1.7096715E2,6.691399E2,1.1316703E3,5.238022E2,1.453377E2,4.937142E1,9.596628E1,4.7092567E1,1.0088646E1,1.7130618E2,4.539447E1,1.2653473E1,3.2740997E1,1.6551164E2,3.5829056E2,2.4523949E1,1.0728658E1,2.9471487E1,1.762108E1],"tree_param":{"num_deleted":"0","num_feature":"21","num_nodes":"41","size_leaf_vector":"1"}},{"base_weights":[5.7514743E-3,3.347051E-1,-3.197023E-1,-2.723447E-2,1.0722011E0,3.220851E0,-2.7192263E-2,-2.725682E-2,1.9736859E0,1.9735597E-1,-2.6082484E-2,3.3712995E0,1.4968972E-1,1.5752174E-1,1.91637E-1],"categories":[],"categories_nodes":[],"categories_segments":[],"categories_sizes":[],"default_left":[0,0,0,0,0,0,0,0,0,0,0,0,0,0,0],"id":41,"left_children":[1,3,7,-1,5,11,-1,-1,9,-1,-1,13,-1,-1,-1],"loss_changes":[2.6197043E2,7.898132E2,6.359934E2,0E0,2.3018127E3,1.5625E0,0E0,0E0,5.470712E2,0E0,0E0,7.0739746E0,0E0,0E0,0E0],"parents":[2147483647,0,0,1,1,4,4,2,2,8,8,5,5,11,11],"right_children":[2,4,8,-1,6,12,-1,-1,10,-1,-1,14,-1,-1,-1],"split_conditions":[-8.359853E-1,8E0,8E0,-2.723447E-2,9E0,-5.686363E-1,-2.7192263E-2,-2.725682E-2,9E0,1.9735597E-1,-2.6082484E-2,-1.1652424E0,1.4968972E-1,1.5752174E-1,1.91637E-1],"split_indices":[12,20,20,0,20,18,0,0,20,0,0,5,0,0,0],"split_type":[0,0,0,0,0,0,0,0,0,0,0,0,0,0,0],"sum_hessian":[2.435562E3,1.2124794E3,1.2230828E3,5.5263666E2,6.598427E2,2.8311783E2,3.7672488E2,1.11449E3,1.085928E2,6.0556725E1,4.8036068E1,1.615035E2,1.2161433E2,1.1463161E2,4.6871887E1],"tree_param":{"num_deleted":"0","num_feature":"21","num_nodes":"15","size_leaf_vector":"1"}},{"base_weights":[-6.604179E-3,-2.7274782E-2,1.8269826E0,3.1825812E0,-2.7008338E-2,1.5513927E-1,1.8352634E-1],"categories":[],"categories_nodes":[],"categories_segments":[],"categories_sizes":[],"default_left":[0,0,0,0,0,0,0],"id":42,"left_children":[1,-1,3,5,-1,-1,-1],"loss_changes":[2.3874187E3,0E0,1.7644974E3,4.79126E0,0E0,0E0,0E0],"parents":[2147483647,0,0,2,2,3,3],"right_children":[2,-1,4,6,-1,-1,-1],"split_conditions":[9E0,-2.7274782E-2,1E1,4.1489786E-1,-2.7008338E-2,1.5513927E-1,1.8352634E-1],"split_indices":[20,0,20,1,0,0,0],"split_type":[0,0,0,0,0,0,0],"sum_hessian":[2.4117605E3,1.8647178E3,5.470426E2,3.4788257E2,1.9916002E2,3.0545648E2,4.242608E1],"tree_param":{"num_deleted":"0","num_feature":"21","num_nodes":"7","size_leaf_vector":"1"}},{"base_weights":[5.169247E-3,-4.7672877E-1,9.06141E-1,1.8128688E0,1.851098E-1,2.1323042E0,2.0322031E-1,-1.9295464E-1,2.5193725E0,6.940148E-1,-3.7900186E-1,2.329506E0,7.739358E-2,-4.0429875E-1,1.151648E0,1.6784282E0,1.4211935E-1,-3.385573E-1,9.549626E-2,7.856659E-2,-2.5589764E-2,7.812644E-1,-5.012104E-1,7.892826E-2,-2.2136278E-2,1.3859113E-2,8.436385E-2,9.231984E-2,2.3792943E-2,2.5107055E0,5.609376E-2,-2.1282187E-2,2.4105882E-2,7.2790764E-2,1.3477997E-1,-2.4386836E-2,7.074155E-3,-4.3169722E-1,-2.691396E-2,-4.730893E-1,1.5314102E-1,-2.6657712E-1,4.1369926E-2,-2.4153672E-2,-4.9663237E-3,-4.9216452E-1,-1.8123259E-1,2.4135424E-2,-2.4850901E-2,-1.8671872E-2,-2.7086595E-2,-2.2056414E-2,-0E0],"categories":[],"categories_nodes":[],"categories_segments":[],"categories_sizes":[],"default_left":[0,0,0,0,0,0,0,0,0,0,0,0,0,0,0,0,0,0,0,0,0,0,0,0,0,0,0,0,0,0,0,0,0,0,0,0,0,0,0,0,0,0,0,0,0,0,0,0,0,0,0,0,0],"id":43,"left_children":[1,21,3,5,9,7,17,31,15,11,19,29,13,43,25,27,-1,35,-1,-1,-1,23,37,-1,-1,-1,-1,-1,-1,33,-1,-1,-1,-1,-1,-1,-1,39,-1,45,41,51,-1,-1,-1,49,47,-1,-1,-1,-1,-1,-1],"loss_changes":[1.0587478E3,5.0172943E1,5.544806E2,1.915304E2,1.3793558E2,2.844884E2,6.3692726E1,8.339531E0,6.8650024E1,2.5297153E2,6.0676296E1,1.1830688E1,9.7960815E1,2.8156395E0,2.6209099E1,1.4042892E1,0E0,4.26803E0,0E0,0E0,0E0,3.2663258E1,3.7956543E0,0E0,0E0,0E0,0E0,0E0,0E0,7.478363E0,0E0,0E0,0E0,0E0,0E0,0E0,0E0,1.3998619E1,0E0,2.5909195E0,1.227368E1,1.0317522E0,0E0,0E0,0E0,2.6230621E0,8.94103E0,0E0,0E0,0E0,0E0,0E0,0E0],"parents":[2147483647,0,0,2,2,3,3,5,5,4,4,9,9,12,12,8,8,6,6,10,10,1,1,21,21,14,14,15,15,11,11,7,7,29,29,17,17,22,22,37,37,40,40,13,13,39,39,46,46,45,45,41,41],"right_children":[2,22,4,6,10,8,18,32,16,12,20,30,14,44,26,28,-1,36,-1,-1,-1,24,38,-1,-1,-1,-1,-1,-1,34,-1,-1,-1,-1,-1,-1,-1,40,-1,46,42,52,-1,-1,-1,50,48,-1,-1,-1,-1,-1,-1],"split_conditions":[6.477953E-1,-1.4537358E0,9.230827E-1,-2.1837826E-1,-3.918862E-2,6.6586864E-1,1.1269164E0,-1.984505E-4,1.3342806E0,-1.3558238E0,-1.3558238E0,-6.1157686E-1,3.197172E-3,1.1056122E0,1.3107249E0,-6.085407E-1,1.4211935E-1,6.34672E-1,9.549626E-2,7.856659E-2,-2.5589764E-2,6.8035265E-3,-2.302356E-1,7.892826E-2,-2.2136278E-2,1.3859113E-2,8.436385E-2,9.231984E-2,2.3792943E-2,1.3555782E0,5.609376E-2,-2.1282187E-2,2.4105882E-2,7.2790764E-2,1.3477997E-1,-2.4386836E-2,7.074155E-3,-7.3426425E-1,-2.691396E-2,-1.6287535E-1,3.7389204E-3,-6.23666E-1,4.1369926E-2,-2.4153672E-2,-4.9663237E-3,-1.0047623E0,-8.4406936E-1,2.4135424E-2,-2.4850901E-2,-1.8671872E-2,-2.7086595E-2,-2.2056414E-2,-0E0],"split_indices":[1,1,1,9,11,5,5,15,5,5,5,18,13,0,1,18,0,5,0,0,0,15,9,0,0,0,0,0,0,1,0,0,0,0,0,0,0,9,0,12,13,18,0,0,0,0,18,0,0,0,0,0,0],"split_type":[0,0,0,0,0,0,0,0,0,0,0,0,0,0,0,0,0,0,0,0,0,0,0,0,0,0,0,0,0,0,0,0,0,0,0,0,0,0,0,0,0,0,0,0,0,0,0,0,0,0,0,0,0],"sum_hessian":[2.4310552E3,1.5835558E3,8.474994E2,3.7437973E2,4.7311963E2,3.1175507E2,6.2624687E1,4.4251965E1,2.6750308E2,2.4937952E2,2.2374011E2,6.7315636E1,1.8206387E2,1.2553058E2,5.65333E1,7.629866E1,1.9120444E2,4.7666096E1,1.4958593E1,1.33263035E1,2.104138E2,2.9133196E1,1.5544225E3,1.789702E1,1.12361765E1,2.2502829E1,3.403047E1,6.598822E1,1.0310436E1,5.72064E1,1.0109238E1,3.400984E1,1.0242126E1,1.0235396E1,4.6971004E1,3.7626747E1,1.0039348E1,5.516466E2,1.0027759E3,5.1660455E2,3.5042053E1,2.1164558E1,1.3877495E1,9.7305954E1,2.822462E1,4.8182336E2,3.4781208E1,1.0257823E1,2.4523386E1,1.4867465E2,3.331487E2,1.1088051E1,1.0076508E1],"tree_param":{"num_deleted":"0","num_feature":"21","num_nodes":"53","size_leaf_vector":"1"}},{"base_weights":[-2.274928E-3,-4.929124E-1,3.3320445E-1,-2.4912344E-1,6.67229E-1,7.9248106E-1,-2.64911E-2,1.0630729E0,7.911418E-2,2.0456984E0,9.3188137E-1,-2.1876939E-2,1.2460496E-1,-1.7417995E-2,5.1280815E-2,-1.9110663E-2,-4.9536672E-1,-2.6411766E-2,1.7100641E-1,-1.04198635E-1,1.4327396E0,2.2693587E-2,-2.273581E-2,-0E0,-5.180699E-1,2.9588366E-2,-2.2073768E-1,-5.1557454E-3,1.5081181E-2,-2.6676655E-2,-1.8951729E-1,-2.5184665E-2,1.5989505E-2,-0E0,-2.3152916E-2,-2.919519E-3,-2.5497241E-2,5.5283435E-2,8.2824424E-2,3.0973735E-3,-3.983753E-3],"categories":[],"categories_nodes":[],"categories_segments":[],"categories_sizes":[],"default_left":[0,0,0,0,0,0,0,0,0,0,0,0,0,0,0,0,0,0,0,0,0,0,0,0,0,0,0,0,0,0,0,0,0,0,0,0,0,0,0,0,0],"id":44,"left_children":[1,23,3,15,5,7,-1,9,27,11,13,-1,-1,-1,-1,17,35,-1,19,21,37,-1,-1,25,29,-1,33,39,-1,-1,31,-1,-1,-1,-1,-1,-1,-1,-1,-1,-1],"loss_changes":[4.0237372E2,1.2575485E1,2.8260034E2,2.9835987E1,1.3950131E2,1.6048767E2,0E0,7.695123E1,4.9325886E0,8.118619E1,6.568652E1,0E0,0E0,0E0,0E0,2.8047512E1,1.2477303E0,0E0,7.2663185E1,3.3544094E1,1.1092529E0,0E0,0E0,7.848556E0,4.4595184E0,0E0,1.944685E0,1.0648843E0,0E0,0E0,8.643406E0,0E0,0E0,0E0,0E0,0E0,0E0,0E0,0E0,0E0,0E0],"parents":[2147483647,0,0,2,2,4,4,5,5,7,7,9,9,10,10,3,3,15,15,18,18,19,19,1,1,23,23,8,8,24,24,30,30,26,26,16,16,20,20,27,27],"right_children":[2,24,4,16,6,8,-1,10,28,12,14,-1,-1,-1,-1,18,36,-1,20,22,38,-1,-1,26,30,-1,34,40,-1,-1,32,-1,-1,-1,-1,-1,-1,-1,-1,-1,-1],"split_conditions":[-1.043741E-1,-6.88509E-3,-2.6406515E-1,6.6586864E-1,6.6586864E-1,1.6617204E0,-2.64911E-2,8.803227E-2,1.9838728E0,9.6874106E-1,-5.364619E-1,-2.1876939E-2,1.2460496E-1,-1.7417995E-2,5.1280815E-2,-9.7785205E-1,-1.3493967E0,-2.6411766E-2,6.34672E-1,-9.3574095E-1,-3.818617E-1,2.2693587E-2,-2.273581E-2,-5.8180046E-1,-2.714147E-1,2.9588366E-2,-9.1704357E-1,1.0759034E0,1.5081181E-2,-2.6676655E-2,9.7715235E-1,-2.5184665E-2,1.5989505E-2,-0E0,-2.3152916E-2,-2.919519E-3,-2.5497241E-2,5.5283435E-2,8.2824424E-2,3.0973735E-3,-3.983753E-3],"split_indices":[5,14,8,5,5,7,0,5,10,2,18,0,0,0,0,17,3,0,5,17,7,0,0,11,5,0,3,11,0,0,2,0,0,0,0,0,0,0,0,0,0],"split_type":[0,0,0,0,0,0,0,0,0,0,0,0,0,0,0,0,0,0,0,0,0,0,0,0,0,0,0,0,0,0,0,0,0,0,0,0,0,0,0,0,0],"sum_hessian":[2.4341904E3,9.89321E2,1.4448695E3,5.2587823E2,9.189913E2,8.3279175E2,8.619954E1,6.0267395E2,2.3011783E2,6.8892944E1,5.33781E2,1.0226847E1,5.8666096E1,3.5684917E1,4.9809607E2,2.7402542E2,2.5185281E2,7.526212E1,1.987633E2,1.6325462E2,3.5508675E1,6.200933E1,1.012453E2,4.7121635E1,9.421994E2,1.3047719E1,3.4073917E1,1.648653E2,6.5252525E1,8.9704614E2,4.5153236E1,2.8903275E1,1.624996E1,1.9688007E1,1.4385909E1,1.0031802E1,2.41821E2,1.7807203E1,1.7701471E1,8.1171455E1,8.369385E1],"tree_param":{"num_deleted":"0","num_feature":"21","num_nodes":"41","size_leaf_vector":"1"}},{"base_weights":[1.0890203E-3,-3.4774506E-1,3.026881E-1,5.5182666E-1,-2.6502078E-2,1.3750572E0,4.0425926E-1,-3.732313E-1,7.973873E-1,1.1019485E0,-3.3952865E-1,6.663364E-2,-1.3707185E-2,7.6874234E-2,-2.515014E-2,-2.3517596E-2,4.5019474E-2,-2.3826547E-1,-4.7539222E-1,-4.4416034E-1,7.970087E-1,1.5509672E0,-2.0429543E-1,1.052161E0,1.14565685E-1,1.2182971E-1,-2.401966E-2,9.763508E-3,-2.3246638E-2,1.5908993E0,1.1826949E0,3.2552294E-2,1.2862529E0,4.900394E-2,7.630884E-2,8.7896846E-2,1.1940898E0,2.8081212E-2,7.9078935E-2,-4.0637735E-1,-2.61751E-2,-2.5989983E-2,-3.631659E-1,-4.3473116E-1,-2.6896631E-2,7.178274E-3,-4.7576392E-1,-2.5153643E-2,5.9606484E-3,-1.6803771E-2,-2.5463814E-2],"categories":[],"categories_nodes":[],"categories_segments":[],"categories_sizes":[],"default_left":[0,0,0,0,0,0,0,0,0,0,0,0,0,0,0,0,0,0,0,0,0,0,0,0,0,0,0,0,0,0,0,0,0,0,0,0,0,0,0,0,0,0,0,0,0,0,0,0,0,0,0],"id":45,"left_children":[1,17,3,5,-1,29,7,13,9,11,15,-1,-1,-1,-1,-1,-1,19,43,39,21,23,27,25,-1,-1,-1,-1,-1,35,31,-1,33,-1,-1,-1,37,-1,-1,41,-1,-1,49,45,-1,-1,47,-1,-1,-1,-1],"loss_changes":[2.565715E2,1.5647659E1,2.7203656E2,1.2216757E2,0E0,4.807373E0,2.6285205E2,7.3543465E1,1.9867981E2,1.4446527E2,2.1126957E1,0E0,0E0,0E0,0E0,0E0,0E0,1.3177167E2,1.1408081E0,1.3934555E0,7.906954E1,1.9732193E1,5.5594335E0,8.3684586E1,0E0,0E0,0E0,0E0,0E0,2.5881653E0,3.680107E0,0E0,3.8378372E0,0E0,0E0,0E0,4.92807E0,0E0,0E0,1.651104E0,0E0,0E0,1.0100632E0,8.30859E0,0E0,0E0,5.532051E0,0E0,0E0,0E0,0E0],"parents":[2147483647,0,0,2,2,3,3,6,6,8,8,9,9,7,7,10,10,1,1,17,17,20,20,21,21,23,23,22,22,5,5,30,30,32,32,29,29,36,36,19,19,39,39,18,18,43,43,46,46,42,42],"right_children":[2,18,4,6,-1,30,8,14,10,12,16,-1,-1,-1,-1,-1,-1,20,44,40,22,24,28,26,-1,-1,-1,-1,-1,36,32,-1,34,-1,-1,-1,38,-1,-1,42,-1,-1,50,46,-1,-1,48,-1,-1,-1,-1],"split_conditions":[9.813058E-1,9.289708E-1,-1.1233578E-1,3.7185305E-3,-2.6502078E-2,2.0440078E-1,-9.430351E-1,-1.5678755E0,-8.156741E-1,-3.1341884E-1,4.8654506E-1,6.663364E-2,-1.3707185E-2,7.6874234E-2,-2.515014E-2,-2.3517596E-2,4.5019474E-2,8.57636E-1,-3.1679907E-1,-1.9145417E-1,1.8401842E-1,3.1970325E-3,4.709132E-1,-1.5701267E-1,1.14565685E-1,1.2182971E-1,-2.401966E-2,9.763508E-3,-2.3246638E-2,3.1868615E-3,3.714348E-3,3.2552294E-2,7.8449255E-1,4.900394E-2,7.630884E-2,8.7896846E-2,2.997229E-1,2.8081212E-2,7.9078935E-2,1.2680745E-1,-2.61751E-2,-2.5989983E-2,5.785856E-1,3.9299157E-1,-2.6896631E-2,7.178274E-3,2.1786485E0,-2.5153643E-2,5.9606484E-3,-1.6803771E-2,-2.5463814E-2],"split_indices":[4,2,7,13,0,10,1,1,1,7,6,0,0,0,0,0,0,2,8,7,1,13,1,7,0,0,0,0,0,13,13,0,8,0,0,0,9,0,0,1,0,0,11,1,0,0,1,0,0,0,0],"split_type":[0,0,0,0,0,0,0,0,0,0,0,0,0,0,0,0,0,0,0,0,0,0,0,0,0,0,0,0,0,0,0,0,0,0,0,0,0,0,0,0,0,0,0,0,0,0,0,0,0,0,0],"sum_hessian":[2.4275732E3,1.1243538E3,1.3032196E3,1.0040542E3,2.9916537E2,1.5078694E2,8.532672E2,2.8588232E2,5.673849E2,4.480799E2,1.1930502E2,3.8425916E2,6.3820744E1,1.7237658E1,2.6864468E2,1.0895134E2,1.035368E1,6.0985645E2,5.144973E2,5.0971423E2,1.0014223E2,5.7332214E1,4.2810013E1,3.6056664E1,2.127555E1,1.8970106E1,1.708656E1,1.5768154E1,2.7041859E1,6.635618E1,8.443076E1,1.5974567E1,6.845619E1,3.3327873E1,3.5128323E1,4.3348392E1,2.300779E1,1.02696295E1,1.273816E1,3.5543445E2,1.5427975E2,9.051409E1,2.6492038E2,3.2339355E2,1.9110374E2,2.0001802E1,3.0339175E2,2.9148117E2,1.1910582E1,2.3033008E2,3.4590298E1],"tree_param":{"num_deleted":"0","num_feature":"21","num_nodes":"51","size_leaf_vector":"1"}},{"base_weights":[-2.0163918E-2,3.793449E-1,-4.2405584E-1,1.2025324E-2,1.2647184E0,1.6586224E0,-5.2249557E-1,1.0936236E-1,-2.6300415E-2,-8.512448E-4,1.8369384E0,-0E0,2.0491495E0,1.179822E-1,-2.437023E-2,2.0075281E-1,-4.5555347E-1,5.000058E-1,-2.7162129E-2,1.5503526E0,-1.2092302E-1,-2.5207331E-2,9.938964E-1,7.438194E-2,5.501214E-3,3.6256026E-2,1.9827865E0,-3.198594E-1,3.0287877E-2,-2.563845E-2,1.3080083E-2,1.2409248E-1,5.9980847E-2,-4.4238336E-2,-2.7096098E-2,2.843201E-2,-2.3695279E-2],"categories":[],"categories_nodes":[],"categories_segments":[],"categories_sizes":[],"default_left":[0,0,0,0,0,0,0,0,0,0,0,0,0,0,0,0,0,0,0,0,0,0,0,0,0,0,0,0,0,0,0,0,0,0,0,0,0],"id":46,"left_children":[1,3,15,5,7,9,33,-1,-1,-1,11,-1,13,-1,-1,21,17,19,-1,25,27,-1,23,-1,-1,-1,31,29,-1,-1,-1,-1,-1,35,-1,-1,-1],"loss_changes":[3.914777E2,3.9543994E2,2.4332565E1,7.6196265E2,5.919046E2,6.493121E1,5.6477203E0,0E0,0E0,0E0,7.5104004E1,0E0,1.3887036E2,0E0,0E0,3.4788197E1,9.731549E1,6.5825645E1,0E0,1.1464752E1,9.980488E0,0E0,1.1631481E1,0E0,0E0,0E0,6.2537766E0,6.531425E0,0E0,0E0,0E0,0E0,0E0,9.065451E0,0E0,0E0,0E0],"parents":[2147483647,0,0,1,1,3,3,4,4,5,5,10,10,12,12,2,2,16,16,17,17,15,15,22,22,19,19,20,20,27,27,26,26,6,6,33,33],"right_children":[2,4,16,6,8,10,34,-1,-1,-1,12,-1,14,-1,-1,22,18,20,-1,26,28,-1,24,-1,-1,-1,32,30,-1,-1,-1,-1,-1,36,-1,-1,-1],"split_conditions":[-2.9908385E-2,1.0759034E0,-7.053E-3,3.1970271E-3,3.1970253E-3,-1.3284553E0,-4.464011E-1,1.0936236E-1,-2.6300415E-2,-8.512448E-4,-9.782771E-1,-0E0,3E0,1.179822E-1,-2.437023E-2,2.5864005E-1,3E0,-9.7785205E-1,-2.7162129E-2,-6.5752596E-1,1.0052775E0,-2.5207331E-2,-1.181955E0,7.438194E-2,5.501214E-3,3.6256026E-2,-6.192301E-1,1E0,3.0287877E-2,-2.563845E-2,1.3080083E-2,1.2409248E-1,5.9980847E-2,3.7980743E-3,-2.7096098E-2,2.843201E-2,-2.3695279E-2],"split_indices":[1,11,14,13,13,3,3,0,0,0,1,0,20,0,0,12,20,17,0,18,2,0,3,0,0,0,18,20,0,0,0,0,0,13,0,0,0],"split_type":[0,0,0,0,0,0,0,0,0,0,0,0,0,0,0,0,0,0,0,0,0,0,0,0,0,0,0,0,0,0,0,0,0,0,0,0,0],"sum_hessian":[2.4165522E3,1.2138967E3,1.2026554E3,8.5916486E2,3.5473184E2,2.1050778E2,6.486571E2,2.342981E2,1.2043375E2,1.9884941E1,1.9062283E2,1.9789492E1,1.7083334E2,1.5253325E2,1.83001E1,5.6292915E1,1.1463625E3,9.527327E1,1.0510892E3,3.543065E1,5.9842625E1,2.9424765E1,2.686815E1,1.6307173E1,1.0560978E1,1.3554838E1,2.187581E1,4.8196968E1,1.1645658E1,3.7294304E1,1.0902664E1,1.1677698E1,1.0198112E1,2.7029171E1,6.216279E2,1.0265613E1,1.676356E1],"tree_param":{"num_deleted":"0","num_feature":"21","num_nodes":"37","size_leaf_vector":"1"}},{"base_weights":[-0E0,1.3466153E-1,-1.6019621E-1,-1.469327E-1,3.3036944E-1,7.031211E-1,-4.4808485E-2,8.5614455E-1,-1.1370197E-1,-2.2847813E-1,9.204908E-1,3.226622E-1,1.0577025E0,6.223452E-2,2.4252843E-2,-7.0069954E-2,-3.4203047E-1,-0E0,3.1713836E-2,5.6091953E-2,-1.6754328E-1,-2.7909052E-1,9.5347606E-2,-1.8631414E-2,3.3272082E-1,-4.5263904E-1,-0E0,-2.4405934E-1,1.3147295E-1,-1.4014177E-1,1.4067923E-1,1.5838642E-2,-2.509979E-1,2.1533493E-2,-2.6550636E-1,2.9972973E-1,-1.8746798E-1,-2.1970918E-2,1.4667662E-2,-2.7833566E-1,1.1794553E-1,3.5203928E-1,4.1452765E-2,1.0296714E-2,5.2641567E-2,6.1637E-3,-1.4481972E-2,-1.0692723E-2,-2.1506725E-2,6.44066E-1,6.848325E-2,6.2080663E-2,-5.234092E-3,-6.650859E-3,-2.2882966E-2,-2.195029E-2,2.3951358E-3,1.720196E-2,-5.99346E-3,2.0030595E-2,-0E0,-6.578371E-3,-2.4688883E-2,-2.3095928E-2,-1.47115905E-2,-1.1562036E-1,-2.4069669E-2,1.7117852E-2,9.942187E-2,-0E0,1.2857209E-2,2.4416797E-2,2.0450228E-3,-1.3522834E-2,-0E0],"categories":[],"categories_nodes":[],"categories_segments":[],"categories_sizes":[],"default_left":[0,0,0,0,0,0,0,0,0,0,0,0,0,0,0,0,0,0,0,0,0,0,0,0,0,0,0,0,0,0,0,0,0,0,0,0,0,0,0,0,0,0,0,0,0,0,0,0,0,0,0,0,0,0,0,0,0,0,0,0,0,0,0,0,0,0,0,0,0,0,0,0,0,0,0],"id":47,"left_children":[1,3,15,9,5,7,29,11,33,31,49,17,13,-1,-1,19,63,-1,-1,27,21,25,23,-1,59,61,55,65,41,35,67,-1,39,-1,37,71,53,-1,-1,47,57,43,45,-1,-1,-1,-1,-1,-1,51,-1,-1,-1,-1,-1,-1,-1,-1,-1,-1,-1,-1,-1,-1,-1,73,-1,-1,69,-1,-1,-1,-1,-1,-1],"loss_changes":[5.286122E1,7.345265E1,1.8229568E1,4.821427E1,1.103573E2,5.01687E1,7.264917E0,3.511316E1,6.000272E0,6.7293663E0,4.123638E0,1.0347741E1,2.4821655E1,0E0,0E0,9.509781E0,2.0370712E0,0E0,0E0,7.7308917E0,1.2942697E1,1.4768059E1,1.4914457E1,0E0,2.172141E0,2.166027E0,3.2848916E0,1.9561167E0,5.25456E0,5.921676E0,1.1784534E0,0E0,5.2772026E0,0E0,5.825914E0,1.0953486E0,3.6080456E0,0E0,0E0,4.4366913E0,2.485941E0,7.710593E0,5.5855756E0,0E0,0E0,0E0,0E0,0E0,0E0,1.37704115E1,0E0,0E0,0E0,0E0,0E0,0E0,0E0,0E0,0E0,0E0,0E0,0E0,0E0,0E0,0E0,1.0353994E0,0E0,0E0,2.1040487E0,0E0,0E0,0E0,0E0,0E0,0E0],"parents":[2147483647,0,0,1,1,4,4,5,5,3,3,7,7,12,12,2,2,11,11,15,15,20,20,22,22,21,21,19,19,6,6,9,9,8,8,29,29,34,34,32,32,28,28,41,41,42,42,39,39,10,10,49,49,36,36,26,26,40,40,24,24,25,25,16,16,27,27,30,30,68,68,35,35,65,65],"right_children":[2,4,16,10,6,8,30,12,34,32,50,18,14,-1,-1,20,64,-1,-1,28,22,26,24,-1,60,62,56,66,42,36,68,-1,40,-1,38,72,54,-1,-1,48,58,44,46,-1,-1,-1,-1,-1,-1,52,-1,-1,-1,-1,-1,-1,-1,-1,-1,-1,-1,-1,-1,-1,-1,74,-1,-1,70,-1,-1,-1,-1,-1,-1],"split_conditions":[2.2452462E-1,-9.849409E-1,-1.1912487E-1,-1.6061701E-1,-6.4100313E-1,2.5864005E-1,-6.754378E-1,-1.068488E0,-9.350788E-1,-1.0890863E0,2.8741997E-1,1.5698523E-3,-1.422989E-1,6.223452E-2,2.4252843E-2,7.612499E-1,1.6616575E0,-0E0,3.1713836E-2,-9.818611E-1,8.493713E-1,1.2234567E0,-4.845697E-1,-1.8631414E-2,8.8230073E-1,-9.8323E-1,1.0421417E0,2.997229E-1,-1.5450217E-1,-6.88509E-3,-2.302356E-1,1.5838642E-2,-3.466597E-1,2.1533493E-2,-9.1413707E-1,-8.181267E-3,-6.906054E-1,-2.1970918E-2,1.4667662E-2,-1.7009768E-1,-1.0161144E0,1.1206936E0,-1.0157634E0,1.0296714E-2,5.2641567E-2,6.1637E-3,-1.4481972E-2,-1.0692723E-2,-2.1506725E-2,2.985974E-1,6.848325E-2,6.2080663E-2,-5.234092E-3,-6.650859E-3,-2.2882966E-2,-2.195029E-2,2.3951358E-3,1.720196E-2,-5.99346E-3,2.0030595E-2,-0E0,-6.578371E-3,-2.4688883E-2,-2.3095928E-2,-1.47115905E-2,7.399097E-1,-2.4069669E-2,1.7117852E-2,-3.1341884E-1,-0E0,1.2857209E-2,2.4416797E-2,2.0450228E-3,-1.3522834E-2,-0E0],"split_indices":[10,17,7,3,17,12,12,3,9,17,19,13,7,0,0,10,7,0,0,17,12,9,17,0,10,9,17,9,9,14,9,0,10,0,17,13,9,0,0,7,17,0,0,0,0,0,0,0,0,3,0,0,0,0,0,0,0,0,0,0,0,0,0,0,0,0,0,0,7,0,0,0,0,0,0],"split_type":[0,0,0,0,0,0,0,0,0,0,0,0,0,0,0,0,0,0,0,0,0,0,0,0,0,0,0,0,0,0,0,0,0,0,0,0,0,0,0,0,0,0,0,0,0,0,0,0,0,0,0,0,0,0,0,0,0,0,0,0,0,0,0,0,0,0,0,0,0,0,0,0,0,0,0],"sum_hessian":[2.4269797E3,1.3187167E3,1.1082632E3,5.391182E2,7.7959845E2,3.9178253E2,3.878159E2,3.3075912E2,6.1023434E1,5.02136E2,3.698227E1,9.235755E1,2.3840157E2,1.7795685E2,6.0444714E1,7.446733E2,3.6358987E2,4.456809E1,4.778946E1,3.2114297E2,4.235303E2,2.9946014E2,1.2407015E2,4.0466103E1,8.360405E1,1.8407755E2,1.1538259E2,6.1973724E1,2.5916925E2,2.5913788E2,1.2867801E2,1.8092836E1,4.8404315E2,1.1836849E1,4.9186584E1,2.311606E1,2.3602182E2,3.8735054E1,1.045153E1,4.5285275E2,3.1190395E1,7.186677E1,1.8730247E2,6.1269596E1,1.0597173E1,1.5252748E2,3.4775E1,3.2289175E2,1.29961E2,2.5201345E1,1.1780923E1,1.4317186E1,1.0884158E1,1.9989278E2,3.6129047E1,1.094912E1,1.0443348E2,1.7530521E1,1.3659875E1,7.027806E1,1.3325987E1,2.3497013E1,1.6058054E2,9.689381E1,2.6669604E2,4.317114E1,1.8802588E1,1.7568617E1,1.1110939E2,6.7176414E1,4.3932976E1,1.1173696E1,1.1942365E1,1.8004244E1,2.5166893E1],"tree_param":{"num_deleted":"0","num_feature":"21","num_nodes":"75","size_leaf_vector":"1"}},{"base_weights":[-5.0357934E-3,-2.784561E-1,8.383036E-1,1.2224792E0,-1.2938668E-1,-4.4229403E-1,-1.9273002E-2,1.3983909E0,6.749802E-1,-2.1505853E-2,1.514504E0,-2.5209976E-2,1.0909406E0,-1.6160881E-2,1.40234E0,7.650123E-1,1.6629374E0,1.9877645E-1,-2.0125206E-1,1.2488937E-1,-4.0020865E-1,1.3754821E-1,8.074794E-1,-3.068267E-1,3.4303996E-1,3.182959E-2,6.834498E-3,-2.4278736E-2,3.2712513E-1,-1.9803876E-1,8.2206315E-1,-2.6486564E-2,-1.16681576E-1,-2.3837365E-2,6.207541E-2,2.4165303E-2,-5.467384E-3,3.8800452E-2,8.43864E-2,6.511379E-2,5.0242394E-3,8.709877E-2,5.7710856E-2,5.363677E-2,1.8561808E-2,-2.5498396E-2,-2.5896562E-4,5.1937457E-2,1.8209644E-2,-4.0691113E-1,-2.3993827E-2,-2.0858428E-2,-0E0,-0E0,-1.8059092E-2,-9.795556E-3,-2.0985534E-2],"categories":[],"categories_nodes":[],"categories_segments":[],"categories_sizes":[],"default_left":[0,0,0,0,0,0,0,0,0,0,0,0,0,0,0,0,0,0,0,0,0,0,0,0,0,0,0,0,0,0,0,0,0,0,0,0,0,0,0,0,0,0,0,0,0,0,0,0,0,0,0,0,0,0,0,0,0],"id":48,"left_children":[1,5,3,7,19,49,17,9,11,-1,15,-1,13,-1,37,43,41,21,31,27,45,23,39,55,25,-1,-1,-1,29,53,47,-1,33,-1,35,-1,-1,-1,-1,-1,-1,-1,-1,-1,-1,-1,-1,-1,-1,51,-1,-1,-1,-1,-1,-1,-1],"loss_changes":[5.607351E2,7.774272E1,2.223725E2,3.9911804E1,1.2512278E1,1.3362122E0,2.8917831E1,7.0213684E1,5.4412956E1,0E0,3.2046387E1,0E0,3.7106094E1,0E0,1.0387085E1,5.9399548E0,8.104248E0,1.2370739E1,1.10020275E1,1.1731283E1,3.3864899E0,2.789236E1,9.563002E0,1.0945282E0,1.2326349E1,0E0,0E0,0E0,1.8929968E1,1.2747389E0,2.9759274E0,0E0,2.1225103E1,0E0,1.6273666E1,0E0,0E0,0E0,0E0,0E0,0E0,0E0,0E0,0E0,0E0,0E0,0E0,0E0,0E0,2.5381927E0,0E0,0E0,0E0,0E0,0E0,0E0,0E0],"parents":[2147483647,0,0,2,2,1,1,3,3,7,7,8,8,12,12,10,10,6,6,4,4,17,17,21,21,24,24,19,19,28,28,18,18,32,32,34,34,14,14,22,22,16,16,15,15,20,20,30,30,5,5,49,49,29,29,23,23],"right_children":[2,6,4,8,20,50,18,10,12,-1,16,-1,14,-1,38,44,42,22,32,28,46,24,40,56,26,-1,-1,-1,30,54,48,-1,34,-1,36,-1,-1,-1,-1,-1,-1,-1,-1,-1,-1,-1,-1,-1,-1,52,-1,-1,-1,-1,-1,-1,-1],"split_conditions":[9.5354277E-1,8.269206E-1,-3.1679907E-1,-1.1248806E0,3.1970371E-3,2.2918823E-1,-1.1248806E0,3.666143E-1,-3.5261887E-1,-2.1505853E-2,1.0180986E0,-2.5209976E-2,3.666143E-1,-1.6160881E-2,1.0310502E0,-9.6435946E-1,3.1890408E-3,9.0626025E-1,-3.5261887E-1,3.666143E-1,1.0561314E0,-3.5202172E-1,-9.6435946E-1,3.1890408E-3,3.1890408E-3,3.182959E-2,6.834498E-3,-2.4278736E-2,1.0180986E0,9.871901E-1,5.1003945E-1,-2.6486564E-2,-9.668889E-1,-2.3837365E-2,-3.1679907E-1,2.4165303E-2,-5.467384E-3,3.8800452E-2,8.43864E-2,6.511379E-2,5.0242394E-3,8.709877E-2,5.7710856E-2,5.363677E-2,1.8561808E-2,-2.5498396E-2,-2.5896562E-4,5.1937457E-2,1.8209644E-2,6.3019705E-1,-2.3993827E-2,-2.0858428E-2,-0E0,-0E0,-1.8059092E-2,-9.795556E-3,-2.0985534E-2],"split_indices":[2,2,8,8,13,10,8,16,8,0,2,0,16,0,2,17,13,2,8,16,0,5,17,13,13,0,0,0,2,2,8,0,5,0,8,0,0,0,0,0,0,0,0,0,0,0,0,0,0,0,0,0,0,0,0,0,0],"split_type":[0,0,0,0,0,0,0,0,0,0,0,0,0,0,0,0,0,0,0,0,0,0,0,0,0,0,0,0,0,0,0,0,0,0,0,0,0,0,0,0,0,0,0,0,0,0,0,0,0,0,0,0,0,0,0,0,0],"sum_hessian":[2.4244004E3,1.8319467E3,5.924536E2,4.245301E2,1.6792352E2,1.120188E3,7.1175867E2,3.1925037E2,1.0527974E2,1.8521828E1,3.0072855E2,2.6907734E1,7.8372E1,1.3674158E1,6.4697845E1,5.1417377E1,2.4931116E2,3.2175638E2,3.9000226E2,8.530621E1,8.26173E1,2.944348E2,2.732158E1,9.17463E1,2.026885E2,8.137714E1,1.2131137E2,1.9964684E1,6.534153E1,3.1151327E1,3.4190205E1,7.70526E1,3.1294965E2,1.04864815E2,2.0808485E2,6.1116703E1,1.4696814E2,2.2060638E1,4.2637207E1,1.5010918E1,1.2310664E1,2.1274574E2,3.6565422E1,2.694767E1,2.4469707E1,6.2886345E1,1.973096E1,2.1332508E1,1.2857697E1,5.9281635E2,5.273717E2,5.784738E2,1.4342486E1,1.4574709E1,1.6576618E1,5.095508E1,4.0791218E1],"tree_param":{"num_deleted":"0","num_feature":"21","num_nodes":"57","size_leaf_vector":"1"}},{"base_weights":[2.82897E-3,-2.973354E-1,2.7985528E-1,-1.4905019E-1,1.485058E0,2.1178646E0,-4.4233522E-1,1.8477075E-1,-2.5488445E-1,-3.7407163E-1,1.43805025E-2,3.0840036E-1,-2.5215724E-2,-3.1309518E-1,1.1297876E0,6.220425E-2,1.2454807E-1,8.19042E-1,9.3621194E-2,-8.968574E-2,-4.2553726E-1,-3.6643752E-1,7.183394E-1,8.3533905E-2,-1.79711E-2,2.3621824E-1,-1.3547975E-2,7.735493E-3,5.6071997E-2,-1.9258103E-1,-4.2660445E-1,-2.6335472E-2,-1.4407738E-1,5.5311497E-2,1.6044548E-2,1.9449807E0,2.341787E0,5.2058604E-2,2.001958E0,-7.0909197E-3,1.1113721E-1,-2.5859633E-2,-3.626207E-1,-2.2909552E-1,-2.5535828E-2,3.7434127E-2,-1.7676553E-2,5.6771724E-3,-4.120045E-1,2.317113E-3,-2.6356587E-2,-8.363678E-3,6.1893165E-3,1.2144822E-1,8.077161E-2,-2.337651E-2,-6.2490147E-2,8.451274E-3,-1.7381486E-2,-2.3295548E-2,-1.846365E-1,-2.605247E-2,-7.2337203E-3,-0E0,-1.6742863E-2],"categories":[],"categories_nodes":[],"categories_segments":[],"categories_sizes":[],"default_left":[0,0,0,0,0,0,0,0,0,0,0,0,0,0,0,0,0,0,0,0,0,0,0,0,0,0,0,0,0,0,0,0,0,0,0,0,0,0,0,0,0,0,0,0,0,0,0,0,0,0,0,0,0,0,0,0,0,0,0,0,0,0,0,0,0],"id":49,"left_children":[1,9,3,7,5,35,49,15,29,19,11,13,-1,47,17,-1,25,33,-1,21,41,59,23,-1,-1,27,-1,-1,-1,31,55,-1,51,-1,-1,37,53,-1,39,-1,-1,-1,43,45,-1,-1,-1,-1,61,-1,-1,-1,-1,-1,-1,-1,57,-1,-1,-1,63,-1,-1,-1,-1],"loss_changes":[2.0188232E2,2.8152565E1,6.5385034E2,3.3354233E1,4.0731146E2,